digraph Tree {
node [shape=box, style="filled, rounded", color="black", fontname="helvetica"] ;
edge [fontname="helvetica"] ;
0 [label=<genres_['icelandic black metal', 'icelandic metal'] &le; 0.5<br/>gini = 0.5<br/>samples = 1948<br/>value = [1523.0, 1530.0]<br/>class = Populaire>, fillcolor="#feffff"] ;
1 [label=<genres_['russian romance'] &le; 0.5<br/>gini = 0.5<br/>samples = 1947<br/>value = [1520, 1530]<br/>class = Populaire>, fillcolor="#fefeff"] ;
0 -> 1 [labeldistance=2.5, labelangle=45, headlabel="True"] ;
2 [label=<genres_['modern ska punk', 'ska', 'ska punk'] &le; 0.5<br/>gini = 0.5<br/>samples = 1935<br/>value = [1507, 1530]<br/>class = Populaire>, fillcolor="#fcfeff"] ;
1 -> 2 ;
3 [label=<genres_['german hip hop'] &le; 0.5<br/>gini = 0.5<br/>samples = 1934<br/>value = [1502, 1530]<br/>class = Populaire>, fillcolor="#fbfdff"] ;
2 -> 3 ;
4 [label=<genres_['minimalism', 'new age', 'neoclassical'] &le; 0.5<br/>gini = 0.5<br/>samples = 1928<br/>value = [1502.0, 1519.0]<br/>class = Populaire>, fillcolor="#fdfeff"] ;
3 -> 4 ;
5 [label=<genres_['folk punk'] &le; 0.5<br/>gini = 0.5<br/>samples = 1927<br/>value = [1502, 1514]<br/>class = Populaire>, fillcolor="#fdfeff"] ;
4 -> 5 ;
6 [label=<genres_['slowed and reverb'] &le; 0.5<br/>gini = 0.5<br/>samples = 1924<br/>value = [1498, 1514]<br/>class = Populaire>, fillcolor="#fdfeff"] ;
5 -> 6 ;
7 [label=<genres_['chanson'] &le; 0.5<br/>gini = 0.5<br/>samples = 1922<br/>value = [1498, 1509]<br/>class = Populaire>, fillcolor="#fefeff"] ;
6 -> 7 ;
8 [label=<genres_['desi hip hop', 'hindi hip hop'] &le; 0.5<br/>gini = 0.5<br/>samples = 1920<br/>value = [1494, 1509]<br/>class = Populaire>, fillcolor="#fdfeff"] ;
7 -> 8 ;
9 [label=<genres_['cantonese opera'] &le; 0.5<br/>gini = 0.5<br/>samples = 1918<br/>value = [1490, 1509]<br/>class = Populaire>, fillcolor="#fdfeff"] ;
8 -> 9 ;
10 [label=<genres_['cantopop'] &le; 0.5<br/>gini = 0.5<br/>samples = 1912<br/>value = [1482, 1509]<br/>class = Populaire>, fillcolor="#fbfdff"] ;
9 -> 10 ;
11 [label=<genres_['psychedelic space rock', 'space rock'] &le; 0.5<br/>gini = 0.5<br/>samples = 1902<br/>value = [1469, 1507]<br/>class = Populaire>, fillcolor="#fafdfe"] ;
10 -> 11 ;
12 [label=<genres_['vapor soul'] &le; 0.5<br/>gini = 0.5<br/>samples = 1901<br/>value = [1466.0, 1507.0]<br/>class = Populaire>, fillcolor="#fafcfe"] ;
11 -> 12 ;
13 [label=<genres_['cantonese opera', 'vintage cantonese pop'] &le; 0.5<br/>gini = 0.5<br/>samples = 1899<br/>value = [1464, 1507]<br/>class = Populaire>, fillcolor="#f9fcfe"] ;
12 -> 13 ;
14 [label=<genres_['russian heavy metal'] &le; 0.5<br/>gini = 0.5<br/>samples = 1897<br/>value = [1460, 1507]<br/>class = Populaire>, fillcolor="#f9fcfe"] ;
13 -> 14 ;
15 [label=<followers &le; 15093.5<br/>gini = 0.5<br/>samples = 1885<br/>value = [1444, 1507]<br/>class = Populaire>, fillcolor="#f7fbfe"] ;
14 -> 15 ;
16 [label=<genres_['chillhop', 'lo-fi beats'] &le; 0.5<br/>gini = 0.281<br/>samples = 912<br/>value = [1196, 244]<br/>class = Non Populaire>, fillcolor="#ea9b61"] ;
15 -> 16 ;
17 [label=<genres_['south african deep house'] &le; 0.5<br/>gini = 0.28<br/>samples = 911<br/>value = [1196, 242]<br/>class = Non Populaire>, fillcolor="#ea9a61"] ;
16 -> 17 ;
18 [label=<genres_['reunion pop'] &le; 0.5<br/>gini = 0.278<br/>samples = 910<br/>value = [1196, 240]<br/>class = Non Populaire>, fillcolor="#ea9a61"] ;
17 -> 18 ;
19 [label=<genres_['acid jazz'] &le; 0.5<br/>gini = 0.278<br/>samples = 909<br/>value = [1196, 239]<br/>class = Non Populaire>, fillcolor="#ea9a61"] ;
18 -> 19 ;
20 [label=<genres_['nz reggae'] &le; 0.5<br/>gini = 0.277<br/>samples = 908<br/>value = [1196.0, 238.0]<br/>class = Non Populaire>, fillcolor="#ea9a60"] ;
19 -> 20 ;
21 [label=<genres_['chillsynth', 'synthwave'] &le; 0.5<br/>gini = 0.276<br/>samples = 907<br/>value = [1196, 237]<br/>class = Non Populaire>, fillcolor="#ea9a60"] ;
20 -> 21 ;
22 [label=<genres_['jazz', 'cool jazz'] &le; 0.5<br/>gini = 0.274<br/>samples = 906<br/>value = [1196, 234]<br/>class = Non Populaire>, fillcolor="#ea9a60"] ;
21 -> 22 ;
23 [label=<genres_['healing hz', 'sleep'] &le; 0.5<br/>gini = 0.273<br/>samples = 905<br/>value = [1196, 233]<br/>class = Non Populaire>, fillcolor="#ea9a60"] ;
22 -> 23 ;
24 [label=<genres_['spanish folk rock'] &le; 0.5<br/>gini = 0.272<br/>samples = 904<br/>value = [1196, 232]<br/>class = Non Populaire>, fillcolor="#ea995f"] ;
23 -> 24 ;
25 [label=<genres_['sad rap'] &le; 0.5<br/>gini = 0.27<br/>samples = 903<br/>value = [1196.0, 229.0]<br/>class = Non Populaire>, fillcolor="#ea995f"] ;
24 -> 25 ;
26 [label=<genres_['lo-fi jazzhop'] &le; 0.5<br/>gini = 0.268<br/>samples = 902<br/>value = [1196, 227]<br/>class = Non Populaire>, fillcolor="#ea995f"] ;
25 -> 26 ;
27 [label=<genres_['glitchcore'] &le; 0.5<br/>gini = 0.26<br/>samples = 894<br/>value = [1194, 217]<br/>class = Non Populaire>, fillcolor="#ea985d"] ;
26 -> 27 ;
28 [label=<genres_['latin house', 'tech house', 'tribal house', 'funky house'] &le; 0.5<br/>gini = 0.259<br/>samples = 893<br/>value = [1194, 216]<br/>class = Non Populaire>, fillcolor="#ea985d"] ;
27 -> 28 ;
29 [label=<genres_['british soul', 'uk contemporary r&b'] &le; 0.5<br/>gini = 0.258<br/>samples = 892<br/>value = [1194, 214]<br/>class = Non Populaire>, fillcolor="#ea985c"] ;
28 -> 29 ;
30 [label=<genres_['g-funk', 'boogie', 'post-disco'] &le; 0.5<br/>gini = 0.255<br/>samples = 891<br/>value = [1194, 211]<br/>class = Non Populaire>, fillcolor="#ea975c"] ;
29 -> 30 ;
31 [label=<genres_['swedish tropical house'] &le; 0.5<br/>gini = 0.254<br/>samples = 890<br/>value = [1194, 210]<br/>class = Non Populaire>, fillcolor="#ea975c"] ;
30 -> 31 ;
32 [label=<genres_['tropical house', 'lounge', 'chill house'] &le; 0.5<br/>gini = 0.253<br/>samples = 889<br/>value = [1194.0, 208.0]<br/>class = Non Populaire>, fillcolor="#ea975b"] ;
31 -> 32 ;
33 [label=<genres_['math rock', 'djent', 'jazz fusion'] &le; 0.5<br/>gini = 0.251<br/>samples = 888<br/>value = [1194.0, 206.0]<br/>class = Non Populaire>, fillcolor="#e9975b"] ;
32 -> 33 ;
34 [label=<genres_['sad lo-fi', 'slowed and reverb'] &le; 0.5<br/>gini = 0.248<br/>samples = 887<br/>value = [1194.0, 202.0]<br/>class = Non Populaire>, fillcolor="#e9965a"] ;
33 -> 34 ;
35 [label=<genres_['death metal', 'grindcore'] &le; 0.5<br/>gini = 0.247<br/>samples = 886<br/>value = [1194.0, 201.0]<br/>class = Non Populaire>, fillcolor="#e9965a"] ;
34 -> 35 ;
36 [label=<genres_['orchestra'] &le; 0.5<br/>gini = 0.247<br/>samples = 884<br/>value = [1190, 201]<br/>class = Non Populaire>, fillcolor="#e9965a"] ;
35 -> 36 ;
37 [label=<genres_['focus beats', 'lo-fi chill'] &le; 0.5<br/>gini = 0.245<br/>samples = 883<br/>value = [1190, 198]<br/>class = Non Populaire>, fillcolor="#e9965a"] ;
36 -> 37 ;
38 [label=<genres_['symphonic metal', 'gothic metal', 'symphonic rock'] &le; 0.5<br/>gini = 0.241<br/>samples = 882<br/>value = [1190, 194]<br/>class = Non Populaire>, fillcolor="#e99659"] ;
37 -> 38 ;
39 [label=<genres_['j-ambient'] &le; 0.5<br/>gini = 0.242<br/>samples = 881<br/>value = [1186, 194]<br/>class = Non Populaire>, fillcolor="#e99659"] ;
38 -> 39 ;
40 [label=<genres_['spanish rock'] &le; 0.5<br/>gini = 0.243<br/>samples = 876<br/>value = [1175, 194]<br/>class = Non Populaire>, fillcolor="#e9965a"] ;
39 -> 40 ;
41 [label=<genres_['gym hardstyle'] &le; 0.5<br/>gini = 0.244<br/>samples = 875<br/>value = [1171, 194]<br/>class = Non Populaire>, fillcolor="#e9965a"] ;
40 -> 41 ;
42 [label=<genres_['witch house'] &le; 0.5<br/>gini = 0.242<br/>samples = 874<br/>value = [1171, 192]<br/>class = Non Populaire>, fillcolor="#e99659"] ;
41 -> 42 ;
43 [label=<genres_['motown', 'northern soul', 'soul'] &le; 0.5<br/>gini = 0.242<br/>samples = 872<br/>value = [1169, 192]<br/>class = Non Populaire>, fillcolor="#e9965a"] ;
42 -> 43 ;
44 [label=<genres_['piano house'] &le; 0.5<br/>gini = 0.241<br/>samples = 871<br/>value = [1169, 191]<br/>class = Non Populaire>, fillcolor="#e99659"] ;
43 -> 44 ;
45 [label=<genres_['classical piano', 'classical'] &le; 0.5<br/>gini = 0.239<br/>samples = 870<br/>value = [1169, 188]<br/>class = Non Populaire>, fillcolor="#e99559"] ;
44 -> 45 ;
46 [label=<genres_['tropical house'] &le; 0.5<br/>gini = 0.236<br/>samples = 867<br/>value = [1166, 185]<br/>class = Non Populaire>, fillcolor="#e99558"] ;
45 -> 46 ;
47 [label=<genres_['deathcore'] &le; 0.5<br/>gini = 0.237<br/>samples = 866<br/>value = [1163, 185]<br/>class = Non Populaire>, fillcolor="#e99558"] ;
46 -> 47 ;
48 [label=<genres_['italian electronica', 'neo-classical'] &le; 0.5<br/>gini = 0.238<br/>samples = 864<br/>value = [1158.0, 185.0]<br/>class = Non Populaire>, fillcolor="#e99559"] ;
47 -> 48 ;
49 [label=<genres_['lounge'] &le; 0.5<br/>gini = 0.237<br/>samples = 863<br/>value = [1158, 184]<br/>class = Non Populaire>, fillcolor="#e99558"] ;
48 -> 49 ;
50 [label=<genres_['lo-fi beats', 'lo-fi study'] &le; 0.5<br/>gini = 0.237<br/>samples = 862<br/>value = [1155, 184]<br/>class = Non Populaire>, fillcolor="#e99559"] ;
49 -> 50 ;
51 [label=<genres_['pop soul'] &le; 0.5<br/>gini = 0.236<br/>samples = 861<br/>value = [1155, 183]<br/>class = Non Populaire>, fillcolor="#e99558"] ;
50 -> 51 ;
52 [label=<genres_['electro jazz'] &le; 0.5<br/>gini = 0.234<br/>samples = 860<br/>value = [1155, 181]<br/>class = Non Populaire>, fillcolor="#e99558"] ;
51 -> 52 ;
53 [label=<genres_['lo-fi cover'] &le; 0.5<br/>gini = 0.233<br/>samples = 858<br/>value = [1154, 180]<br/>class = Non Populaire>, fillcolor="#e99558"] ;
52 -> 53 ;
54 [label=<genres_['chill out'] &le; 0.5<br/>gini = 0.232<br/>samples = 857<br/>value = [1154.0, 178.0]<br/>class = Non Populaire>, fillcolor="#e99458"] ;
53 -> 54 ;
55 [label=<genres_['new age'] &le; 0.5<br/>gini = 0.231<br/>samples = 856<br/>value = [1154, 177]<br/>class = Non Populaire>, fillcolor="#e99457"] ;
54 -> 55 ;
56 [label=<genres_['variété française', 'chanson', 'french pop'] &le; 0.5<br/>gini = 0.227<br/>samples = 853<br/>value = [1153, 173]<br/>class = Non Populaire>, fillcolor="#e99457"] ;
55 -> 56 ;
57 [label=<genres_['german hyperpop'] &le; 0.5<br/>gini = 0.227<br/>samples = 852<br/>value = [1150.0, 173.0]<br/>class = Non Populaire>, fillcolor="#e99457"] ;
56 -> 57 ;
58 [label=<genres_['drum and bass', 'liquid funk', 'jungle'] &le; 0.5<br/>gini = 0.226<br/>samples = 849<br/>value = [1147, 171]<br/>class = Non Populaire>, fillcolor="#e99457"] ;
57 -> 58 ;
59 [label=<genres_['chill breakcore'] &le; 0.5<br/>gini = 0.224<br/>samples = 848<br/>value = [1147.0, 169.0]<br/>class = Non Populaire>, fillcolor="#e99456"] ;
58 -> 59 ;
60 [label=<genres_['hardvapour', 'vaporwave'] &le; 0.5<br/>gini = 0.223<br/>samples = 846<br/>value = [1146, 168]<br/>class = Non Populaire>, fillcolor="#e99356"] ;
59 -> 60 ;
61 [label=<genres_['lo-fi chill'] &le; 0.5<br/>gini = 0.222<br/>samples = 845<br/>value = [1146.0, 167.0]<br/>class = Non Populaire>, fillcolor="#e99356"] ;
60 -> 61 ;
62 [label=<genres_['chillsynth'] &le; 0.5<br/>gini = 0.22<br/>samples = 838<br/>value = [1141.0, 164.0]<br/>class = Non Populaire>, fillcolor="#e99355"] ;
61 -> 62 ;
63 [label=<genres_['sertanejo', 'sertanejo tradicional'] &le; 0.5<br/>gini = 0.219<br/>samples = 835<br/>value = [1138.0, 163.0]<br/>class = Non Populaire>, fillcolor="#e99355"] ;
62 -> 63 ;
64 [label=<genres_['pop edm', 'vapor twitch'] &le; 0.5<br/>gini = 0.218<br/>samples = 834<br/>value = [1138, 162]<br/>class = Non Populaire>, fillcolor="#e99355"] ;
63 -> 64 ;
65 [label=<genres_['ambient techno'] &le; 0.5<br/>gini = 0.217<br/>samples = 833<br/>value = [1138, 161]<br/>class = Non Populaire>, fillcolor="#e99355"] ;
64 -> 65 ;
66 [label=<genres_['deconstructed club', 'new isolationism'] &le; 0.5<br/>gini = 0.215<br/>samples = 832<br/>value = [1138, 159]<br/>class = Non Populaire>, fillcolor="#e99355"] ;
65 -> 66 ;
67 [label=<genres_['glitch hop'] &le; 0.5<br/>gini = 0.216<br/>samples = 831<br/>value = [1134, 159]<br/>class = Non Populaire>, fillcolor="#e99355"] ;
66 -> 67 ;
68 [label=<genres_['russian witch house'] &le; 0.5<br/>gini = 0.215<br/>samples = 830<br/>value = [1134, 158]<br/>class = Non Populaire>, fillcolor="#e99355"] ;
67 -> 68 ;
69 [label=<followers &le; 7401.5<br/>gini = 0.214<br/>samples = 829<br/>value = [1134, 157]<br/>class = Non Populaire>, fillcolor="#e99254"] ;
68 -> 69 ;
70 [label=<genres_['ambient techno', 'swedish electronic'] &le; 0.5<br/>gini = 0.144<br/>samples = 608<br/>value = [885, 75]<br/>class = Non Populaire>, fillcolor="#e78c4a"] ;
69 -> 70 ;
71 [label=<genres_['sad lo-fi'] &le; 0.5<br/>gini = 0.144<br/>samples = 607<br/>value = [882, 75]<br/>class = Non Populaire>, fillcolor="#e78c4a"] ;
70 -> 71 ;
72 [label=<genres_['devotional'] &le; 0.5<br/>gini = 0.143<br/>samples = 604<br/>value = [879, 74]<br/>class = Non Populaire>, fillcolor="#e78c4a"] ;
71 -> 72 ;
73 [label=<genres_['anarcho-punk', 'crust punk', 'japanese hardcore', 'noisecore', 'powerviolence'] &le; 0.5<br/>gini = 0.144<br/>samples = 603<br/>value = [877, 74]<br/>class = Non Populaire>, fillcolor="#e78c4a"] ;
72 -> 73 ;
74 [label=<genres_['emo rap'] &le; 0.5<br/>gini = 0.144<br/>samples = 602<br/>value = [874, 74]<br/>class = Non Populaire>, fillcolor="#e78c4a"] ;
73 -> 74 ;
75 [label=<genres_['dark clubbing'] &le; 0.5<br/>gini = 0.144<br/>samples = 601<br/>value = [870, 74]<br/>class = Non Populaire>, fillcolor="#e78c4a"] ;
74 -> 75 ;
76 [label=<genres_['afrobeat'] &le; 0.5<br/>gini = 0.145<br/>samples = 599<br/>value = [867, 74]<br/>class = Non Populaire>, fillcolor="#e78c4a"] ;
75 -> 76 ;
77 [label=<genres_['northern soul'] &le; 0.5<br/>gini = 0.146<br/>samples = 596<br/>value = [862, 74]<br/>class = Non Populaire>, fillcolor="#e78c4a"] ;
76 -> 77 ;
78 [label=<genres_['trance'] &le; 0.5<br/>gini = 0.146<br/>samples = 595<br/>value = [860, 74]<br/>class = Non Populaire>, fillcolor="#e78c4a"] ;
77 -> 78 ;
79 [label=<genres_['samba-enredo'] &le; 0.5<br/>gini = 0.146<br/>samples = 594<br/>value = [857, 74]<br/>class = Non Populaire>, fillcolor="#e78c4a"] ;
78 -> 79 ;
80 [label=<genres_['neoclassical'] &le; 0.5<br/>gini = 0.143<br/>samples = 593<br/>value = [857, 72]<br/>class = Non Populaire>, fillcolor="#e78c4a"] ;
79 -> 80 ;
81 [label=<genres_['synthwave'] &le; 0.5<br/>gini = 0.141<br/>samples = 592<br/>value = [857, 71]<br/>class = Non Populaire>, fillcolor="#e78b49"] ;
80 -> 81 ;
82 [label=<genres_['chillhop'] &le; 0.5<br/>gini = 0.142<br/>samples = 591<br/>value = [854, 71]<br/>class = Non Populaire>, fillcolor="#e78b49"] ;
81 -> 82 ;
83 [label=<genres_['djent'] &le; 0.5<br/>gini = 0.14<br/>samples = 589<br/>value = [853, 70]<br/>class = Non Populaire>, fillcolor="#e78b49"] ;
82 -> 83 ;
84 [label=<genres_['sleep'] &le; 0.5<br/>gini = 0.141<br/>samples = 587<br/>value = [850, 70]<br/>class = Non Populaire>, fillcolor="#e78b49"] ;
83 -> 84 ;
85 [label=<genres_['dubstep'] &le; 0.5<br/>gini = 0.137<br/>samples = 586<br/>value = [850, 68]<br/>class = Non Populaire>, fillcolor="#e78b49"] ;
84 -> 85 ;
86 [label=<genres_['russian black metal'] &le; 0.5<br/>gini = 0.138<br/>samples = 584<br/>value = [846, 68]<br/>class = Non Populaire>, fillcolor="#e78b49"] ;
85 -> 86 ;
87 [label=<genres_['french worship'] &le; 0.5<br/>gini = 0.138<br/>samples = 583<br/>value = [844, 68]<br/>class = Non Populaire>, fillcolor="#e78b49"] ;
86 -> 87 ;
88 [label=<genres_['drift', 'drone ambient', 'tape music'] &le; 0.5<br/>gini = 0.136<br/>samples = 582<br/>value = [844, 67]<br/>class = Non Populaire>, fillcolor="#e78b49"] ;
87 -> 88 ;
89 [label=<genres_['christian hip hop', 'gospel r&b'] &le; 0.5<br/>gini = 0.135<br/>samples = 581<br/>value = [844, 66]<br/>class = Non Populaire>, fillcolor="#e78b48"] ;
88 -> 89 ;
90 [label=<genres_['opera'] &le; 0.5<br/>gini = 0.135<br/>samples = 579<br/>value = [839, 66]<br/>class = Non Populaire>, fillcolor="#e78b49"] ;
89 -> 90 ;
91 [label=<genres_['drumstep'] &le; 0.5<br/>gini = 0.132<br/>samples = 578<br/>value = [839, 64]<br/>class = Non Populaire>, fillcolor="#e78b48"] ;
90 -> 91 ;
92 [label=<genres_['chill beats'] &le; 0.5<br/>gini = 0.132<br/>samples = 577<br/>value = [835, 64]<br/>class = Non Populaire>, fillcolor="#e78b48"] ;
91 -> 92 ;
93 [label=<genres_['berlin minimal techno'] &le; 0.5<br/>gini = 0.133<br/>samples = 576<br/>value = [833, 64]<br/>class = Non Populaire>, fillcolor="#e78b48"] ;
92 -> 93 ;
94 [label=<genres_['champeta', 'latin afrobeat', 'música tropical', 'salsa'] &le; 0.5<br/>gini = 0.133<br/>samples = 574<br/>value = [830, 64]<br/>class = Non Populaire>, fillcolor="#e78b48"] ;
93 -> 94 ;
95 [label=<genres_['french opera'] &le; 0.5<br/>gini = 0.133<br/>samples = 573<br/>value = [828, 64]<br/>class = Non Populaire>, fillcolor="#e78b48"] ;
94 -> 95 ;
96 [label=<genres_['black metal'] &le; 0.5<br/>gini = 0.133<br/>samples = 572<br/>value = [827, 64]<br/>class = Non Populaire>, fillcolor="#e78b48"] ;
95 -> 96 ;
97 [label=<genres_['minimal techno'] &le; 0.5<br/>gini = 0.136<br/>samples = 561<br/>value = [806, 64]<br/>class = Non Populaire>, fillcolor="#e78b49"] ;
96 -> 97 ;
98 [label=<genres_['hardcore', 'hardcore punk'] &le; 0.5<br/>gini = 0.138<br/>samples = 555<br/>value = [796, 64]<br/>class = Non Populaire>, fillcolor="#e78b49"] ;
97 -> 98 ;
99 [label=<genres_['ska punk'] &le; 0.5<br/>gini = 0.138<br/>samples = 554<br/>value = [795, 64]<br/>class = Non Populaire>, fillcolor="#e78b49"] ;
98 -> 99 ;
100 [label=<genres_['electro house'] &le; 0.5<br/>gini = 0.138<br/>samples = 552<br/>value = [793.0, 64.0]<br/>class = Non Populaire>, fillcolor="#e78b49"] ;
99 -> 100 ;
101 [label=<genres_['japanese emo', 'japanese hardcore', 'japanese screamo'] &le; 0.5<br/>gini = 0.138<br/>samples = 551<br/>value = [792.0, 64.0]<br/>class = Non Populaire>, fillcolor="#e78b49"] ;
100 -> 101 ;
102 [label=<genres_['disco polo'] &le; 0.5<br/>gini = 0.139<br/>samples = 550<br/>value = [789.0, 64.0]<br/>class = Non Populaire>, fillcolor="#e78b49"] ;
101 -> 102 ;
103 [label=<genres_['jazz'] &le; 0.5<br/>gini = 0.139<br/>samples = 548<br/>value = [786.0, 64.0]<br/>class = Non Populaire>, fillcolor="#e78b49"] ;
102 -> 103 ;
104 [label=<num_albums &le; 17.5<br/>gini = 0.136<br/>samples = 545<br/>value = [785.0, 62.0]<br/>class = Non Populaire>, fillcolor="#e78b49"] ;
103 -> 104 ;
105 [label=<genres_['brazilian emo', 'brazilian hardcore'] &le; 0.5<br/>gini = 0.074<br/>samples = 313<br/>value = [472, 19]<br/>class = Non Populaire>, fillcolor="#e68641"] ;
104 -> 105 ;
106 [label=<genres_['background jazz'] &le; 0.5<br/>gini = 0.075<br/>samples = 312<br/>value = [470, 19]<br/>class = Non Populaire>, fillcolor="#e68641"] ;
105 -> 106 ;
107 [label=<genres_['hardstyle'] &le; 0.5<br/>gini = 0.071<br/>samples = 311<br/>value = [470, 18]<br/>class = Non Populaire>, fillcolor="#e68641"] ;
106 -> 107 ;
108 [label=<genres_['cantonese opera', 'classic cantopop'] &le; 0.5<br/>gini = 0.072<br/>samples = 309<br/>value = [466, 18]<br/>class = Non Populaire>, fillcolor="#e68641"] ;
107 -> 108 ;
109 [label=<genres_['chinese singer-songwriter'] &le; 0.5<br/>gini = 0.072<br/>samples = 308<br/>value = [465, 18]<br/>class = Non Populaire>, fillcolor="#e68641"] ;
108 -> 109 ;
110 [label=<genres_['j-rap'] &le; 0.5<br/>gini = 0.072<br/>samples = 307<br/>value = [462, 18]<br/>class = Non Populaire>, fillcolor="#e68641"] ;
109 -> 110 ;
111 [label=<followers &le; 2214.0<br/>gini = 0.073<br/>samples = 306<br/>value = [459, 18]<br/>class = Non Populaire>, fillcolor="#e68641"] ;
110 -> 111 ;
112 [label=<genres_['indian electronic'] &le; 0.5<br/>gini = 0.094<br/>samples = 207<br/>value = [307, 16]<br/>class = Non Populaire>, fillcolor="#e68843"] ;
111 -> 112 ;
113 [label=<genres_['dubstep', 'dub'] &le; 0.5<br/>gini = 0.095<br/>samples = 206<br/>value = [304, 16]<br/>class = Non Populaire>, fillcolor="#e68843"] ;
112 -> 113 ;
114 [label=<genres_['power metal', 'speed metal', 'heavy metal'] &le; 0.5<br/>gini = 0.095<br/>samples = 205<br/>value = [303, 16]<br/>class = Non Populaire>, fillcolor="#e68843"] ;
113 -> 114 ;
115 [label=<genres_['japanese classical'] &le; 0.5<br/>gini = 0.096<br/>samples = 204<br/>value = [302, 16]<br/>class = Non Populaire>, fillcolor="#e68843"] ;
114 -> 115 ;
116 [label=<genres_['progressive house'] &le; 0.5<br/>gini = 0.097<br/>samples = 202<br/>value = [298, 16]<br/>class = Non Populaire>, fillcolor="#e68844"] ;
115 -> 116 ;
117 [label=<genres_['indiana indie'] &le; 0.5<br/>gini = 0.098<br/>samples = 201<br/>value = [295, 16]<br/>class = Non Populaire>, fillcolor="#e68844"] ;
116 -> 117 ;
118 [label=<followers &le; 2190.0<br/>gini = 0.098<br/>samples = 199<br/>value = [292, 16]<br/>class = Non Populaire>, fillcolor="#e68844"] ;
117 -> 118 ;
119 [label=<genres_['chamber pop', 'shibuya-kei', 'jangle pop', 'french pop'] &le; 0.5<br/>gini = 0.093<br/>samples = 198<br/>value = [292, 15]<br/>class = Non Populaire>, fillcolor="#e68743"] ;
118 -> 119 ;
120 [label=<genres_['chill pop'] &le; 0.5<br/>gini = 0.094<br/>samples = 197<br/>value = [289, 15]<br/>class = Non Populaire>, fillcolor="#e68843"] ;
119 -> 120 ;
121 [label=<genres_['gothic metal', 'doom metal'] &le; 0.5<br/>gini = 0.094<br/>samples = 196<br/>value = [287.0, 15.0]<br/>class = Non Populaire>, fillcolor="#e68843"] ;
120 -> 121 ;
122 [label=<genres_['japanese dub'] &le; 0.5<br/>gini = 0.095<br/>samples = 195<br/>value = [286, 15]<br/>class = Non Populaire>, fillcolor="#e68843"] ;
121 -> 122 ;
123 [label=<genres_['icelandic electronic'] &le; 0.5<br/>gini = 0.095<br/>samples = 194<br/>value = [284, 15]<br/>class = Non Populaire>, fillcolor="#e68843"] ;
122 -> 123 ;
124 [label=<genres_['samba-rock'] &le; 0.5<br/>gini = 0.096<br/>samples = 193<br/>value = [282, 15]<br/>class = Non Populaire>, fillcolor="#e68844"] ;
123 -> 124 ;
125 [label=<genres_['german house'] &le; 0.5<br/>gini = 0.097<br/>samples = 192<br/>value = [279, 15]<br/>class = Non Populaire>, fillcolor="#e68844"] ;
124 -> 125 ;
126 [label=<genres_['german black metal'] &le; 0.5<br/>gini = 0.097<br/>samples = 191<br/>value = [278, 15]<br/>class = Non Populaire>, fillcolor="#e68844"] ;
125 -> 126 ;
127 [label=<genres_['proto-punk', 'power pop'] &le; 0.5<br/>gini = 0.097<br/>samples = 190<br/>value = [277, 15]<br/>class = Non Populaire>, fillcolor="#e68844"] ;
126 -> 127 ;
128 [label=<genres_['folk metal', 'celtic rock'] &le; 0.5<br/>gini = 0.098<br/>samples = 189<br/>value = [276, 15]<br/>class = Non Populaire>, fillcolor="#e68844"] ;
127 -> 128 ;
129 [label=<genres_['ethiopian jazz'] &le; 0.5<br/>gini = 0.098<br/>samples = 188<br/>value = [274, 15]<br/>class = Non Populaire>, fillcolor="#e68844"] ;
128 -> 129 ;
130 [label=<genres_['new orleans jazz'] &le; 0.5<br/>gini = 0.099<br/>samples = 186<br/>value = [272, 15]<br/>class = Non Populaire>, fillcolor="#e68844"] ;
129 -> 130 ;
131 [label=<genres_['classic cantopop'] &le; 0.5<br/>gini = 0.1<br/>samples = 185<br/>value = [270, 15]<br/>class = Non Populaire>, fillcolor="#e68844"] ;
130 -> 131 ;
132 [label=<genres_['grunge revival'] &le; 0.5<br/>gini = 0.102<br/>samples = 182<br/>value = [263, 15]<br/>class = Non Populaire>, fillcolor="#e68844"] ;
131 -> 132 ;
133 [label=<genres_['acoustic rock', 'acoustic pop'] &le; 0.5<br/>gini = 0.102<br/>samples = 181<br/>value = [262, 15]<br/>class = Non Populaire>, fillcolor="#e68844"] ;
132 -> 133 ;
134 [label=<genres_['gospel'] &le; 0.5<br/>gini = 0.103<br/>samples = 180<br/>value = [260, 15]<br/>class = Non Populaire>, fillcolor="#e68844"] ;
133 -> 134 ;
135 [label=<num_albums &le; 3.5<br/>gini = 0.103<br/>samples = 179<br/>value = [259, 15]<br/>class = Non Populaire>, fillcolor="#e78844"] ;
134 -> 135 ;
136 [label=<gini = 0.0<br/>samples = 72<br/>value = [105, 0]<br/>class = Non Populaire>, fillcolor="#e58139"] ;
135 -> 136 ;
137 [label=<genres_['math rock', 'post-rock'] &le; 0.5<br/>gini = 0.162<br/>samples = 107<br/>value = [154, 15]<br/>class = Non Populaire>, fillcolor="#e88d4c"] ;
135 -> 137 ;
138 [label=<genres_['synthwave', 'chillwave', 'vaporwave'] &le; 0.5<br/>gini = 0.164<br/>samples = 106<br/>value = [152, 15]<br/>class = Non Populaire>, fillcolor="#e88d4d"] ;
137 -> 138 ;
139 [label=<genres_['korean city pop'] &le; 0.5<br/>gini = 0.166<br/>samples = 105<br/>value = [149, 15]<br/>class = Non Populaire>, fillcolor="#e88e4d"] ;
138 -> 139 ;
140 [label=<genres_['indian edm'] &le; 0.5<br/>gini = 0.169<br/>samples = 104<br/>value = [146, 15]<br/>class = Non Populaire>, fillcolor="#e88e4d"] ;
139 -> 140 ;
141 [label=<genres_['deconstructed club'] &le; 0.5<br/>gini = 0.171<br/>samples = 103<br/>value = [144.0, 15.0]<br/>class = Non Populaire>, fillcolor="#e88e4e"] ;
140 -> 141 ;
142 [label=<genres_['latin jazz'] &le; 0.5<br/>gini = 0.173<br/>samples = 102<br/>value = [142.0, 15.0]<br/>class = Non Populaire>, fillcolor="#e88e4e"] ;
141 -> 142 ;
143 [label=<genres_['post-rock'] &le; 0.5<br/>gini = 0.176<br/>samples = 101<br/>value = [139, 15]<br/>class = Non Populaire>, fillcolor="#e88f4e"] ;
142 -> 143 ;
144 [label=<followers &le; 2016.0<br/>gini = 0.179<br/>samples = 99<br/>value = [136.0, 15.0]<br/>class = Non Populaire>, fillcolor="#e88f4f"] ;
143 -> 144 ;
145 [label=<genres_['deep smooth jazz', 'smooth jazz'] &le; 0.5<br/>gini = 0.147<br/>samples = 92<br/>value = [127.0, 11.0]<br/>class = Non Populaire>, fillcolor="#e78c4a"] ;
144 -> 145 ;
146 [label=<genres_['cold wave', 'post-punk', 'synthpop'] &le; 0.5<br/>gini = 0.149<br/>samples = 91<br/>value = [125, 11]<br/>class = Non Populaire>, fillcolor="#e78c4a"] ;
145 -> 146 ;
147 [label=<followers &le; 547.5<br/>gini = 0.15<br/>samples = 90<br/>value = [124, 11]<br/>class = Non Populaire>, fillcolor="#e78c4b"] ;
146 -> 147 ;
148 [label=<genres_['trance', 'eurotrance'] &le; 0.5<br/>gini = 0.084<br/>samples = 44<br/>value = [65, 3]<br/>class = Non Populaire>, fillcolor="#e68742"] ;
147 -> 148 ;
149 [label=<genres_['hard house', 'trance'] &le; 0.5<br/>gini = 0.086<br/>samples = 43<br/>value = [64, 3]<br/>class = Non Populaire>, fillcolor="#e68742"] ;
148 -> 149 ;
150 [label=<genres_['tango'] &le; 0.5<br/>gini = 0.088<br/>samples = 42<br/>value = [62, 3]<br/>class = Non Populaire>, fillcolor="#e68743"] ;
149 -> 150 ;
151 [label=<genres_['new age', 'celtic'] &le; 0.5<br/>gini = 0.089<br/>samples = 41<br/>value = [61, 3]<br/>class = Non Populaire>, fillcolor="#e68743"] ;
150 -> 151 ;
152 [label=<genres_['groove room'] &le; 0.5<br/>gini = 0.091<br/>samples = 40<br/>value = [60, 3]<br/>class = Non Populaire>, fillcolor="#e68743"] ;
151 -> 152 ;
153 [label=<genres_['japanese heavy metal'] &le; 0.5<br/>gini = 0.094<br/>samples = 39<br/>value = [58, 3]<br/>class = Non Populaire>, fillcolor="#e68843"] ;
152 -> 153 ;
154 [label=<followers &le; 98.0<br/>gini = 0.095<br/>samples = 38<br/>value = [57, 3]<br/>class = Non Populaire>, fillcolor="#e68843"] ;
153 -> 154 ;
155 [label=<gini = 0.0<br/>samples = 12<br/>value = [20, 0]<br/>class = Non Populaire>, fillcolor="#e58139"] ;
154 -> 155 ;
156 [label=<genres_['trip hop', 'krautrock', 'art rock'] &le; 0.5<br/>gini = 0.139<br/>samples = 26<br/>value = [37, 3]<br/>class = Non Populaire>, fillcolor="#e78b49"] ;
154 -> 156 ;
157 [label=<genres_['electroclash', 'cold wave'] &le; 0.5<br/>gini = 0.142<br/>samples = 25<br/>value = [36, 3]<br/>class = Non Populaire>, fillcolor="#e78c49"] ;
156 -> 157 ;
158 [label=<genres_['russian ska'] &le; 0.5<br/>gini = 0.157<br/>samples = 24<br/>value = [32, 3]<br/>class = Non Populaire>, fillcolor="#e78d4c"] ;
157 -> 158 ;
159 [label=<genres_['ambient dub techno'] &le; 0.5<br/>gini = 0.165<br/>samples = 22<br/>value = [30, 3]<br/>class = Non Populaire>, fillcolor="#e88e4d"] ;
158 -> 159 ;
160 [label=<genres_['skate punk', 'emo pop'] &le; 0.5<br/>gini = 0.175<br/>samples = 21<br/>value = [28, 3]<br/>class = Non Populaire>, fillcolor="#e88e4e"] ;
159 -> 160 ;
161 [label=<num_albums &le; 11.5<br/>gini = 0.185<br/>samples = 20<br/>value = [26, 3]<br/>class = Non Populaire>, fillcolor="#e89050"] ;
160 -> 161 ;
162 [label=<genres_[] &le; 0.5<br/>gini = 0.147<br/>samples = 16<br/>value = [23, 2]<br/>class = Non Populaire>, fillcolor="#e78c4a"] ;
161 -> 162 ;
163 [label=<gini = 0.0<br/>samples = 2<br/>value = [4, 0]<br/>class = Non Populaire>, fillcolor="#e58139"] ;
162 -> 163 ;
164 [label=<followers &le; 109.5<br/>gini = 0.172<br/>samples = 14<br/>value = [19, 2]<br/>class = Non Populaire>, fillcolor="#e88e4e"] ;
162 -> 164 ;
165 [label=<gini = 0.0<br/>samples = 1<br/>value = [0, 1]<br/>class = Populaire>, fillcolor="#399de5"] ;
164 -> 165 ;
166 [label=<followers &le; 376.0<br/>gini = 0.095<br/>samples = 13<br/>value = [19, 1]<br/>class = Non Populaire>, fillcolor="#e68843"] ;
164 -> 166 ;
167 [label=<gini = 0.0<br/>samples = 11<br/>value = [17, 0]<br/>class = Non Populaire>, fillcolor="#e58139"] ;
166 -> 167 ;
168 [label=<num_albums &le; 6.5<br/>gini = 0.444<br/>samples = 2<br/>value = [2, 1]<br/>class = Non Populaire>, fillcolor="#f2c09c"] ;
166 -> 168 ;
169 [label=<gini = 0.0<br/>samples = 1<br/>value = [2, 0]<br/>class = Non Populaire>, fillcolor="#e58139"] ;
168 -> 169 ;
170 [label=<gini = 0.0<br/>samples = 1<br/>value = [0, 1]<br/>class = Populaire>, fillcolor="#399de5"] ;
168 -> 170 ;
171 [label=<followers &le; 234.0<br/>gini = 0.375<br/>samples = 4<br/>value = [3, 1]<br/>class = Non Populaire>, fillcolor="#eeab7b"] ;
161 -> 171 ;
172 [label=<gini = 0.0<br/>samples = 2<br/>value = [2, 0]<br/>class = Non Populaire>, fillcolor="#e58139"] ;
171 -> 172 ;
173 [label=<followers &le; 270.5<br/>gini = 0.5<br/>samples = 2<br/>value = [1, 1]<br/>class = Non Populaire>, fillcolor="#ffffff"] ;
171 -> 173 ;
174 [label=<gini = 0.0<br/>samples = 1<br/>value = [0, 1]<br/>class = Populaire>, fillcolor="#399de5"] ;
173 -> 174 ;
175 [label=<gini = 0.0<br/>samples = 1<br/>value = [1, 0]<br/>class = Non Populaire>, fillcolor="#e58139"] ;
173 -> 175 ;
176 [label=<gini = 0.0<br/>samples = 1<br/>value = [2, 0]<br/>class = Non Populaire>, fillcolor="#e58139"] ;
160 -> 176 ;
177 [label=<gini = 0.0<br/>samples = 1<br/>value = [2, 0]<br/>class = Non Populaire>, fillcolor="#e58139"] ;
159 -> 177 ;
178 [label=<gini = 0.0<br/>samples = 2<br/>value = [2, 0]<br/>class = Non Populaire>, fillcolor="#e58139"] ;
158 -> 178 ;
179 [label=<gini = 0.0<br/>samples = 1<br/>value = [4, 0]<br/>class = Non Populaire>, fillcolor="#e58139"] ;
157 -> 179 ;
180 [label=<gini = 0.0<br/>samples = 1<br/>value = [1, 0]<br/>class = Non Populaire>, fillcolor="#e58139"] ;
156 -> 180 ;
181 [label=<gini = 0.0<br/>samples = 1<br/>value = [1, 0]<br/>class = Non Populaire>, fillcolor="#e58139"] ;
153 -> 181 ;
182 [label=<gini = 0.0<br/>samples = 1<br/>value = [2, 0]<br/>class = Non Populaire>, fillcolor="#e58139"] ;
152 -> 182 ;
183 [label=<gini = 0.0<br/>samples = 1<br/>value = [1, 0]<br/>class = Non Populaire>, fillcolor="#e58139"] ;
151 -> 183 ;
184 [label=<gini = 0.0<br/>samples = 1<br/>value = [1, 0]<br/>class = Non Populaire>, fillcolor="#e58139"] ;
150 -> 184 ;
185 [label=<gini = 0.0<br/>samples = 1<br/>value = [2, 0]<br/>class = Non Populaire>, fillcolor="#e58139"] ;
149 -> 185 ;
186 [label=<gini = 0.0<br/>samples = 1<br/>value = [1, 0]<br/>class = Non Populaire>, fillcolor="#e58139"] ;
148 -> 186 ;
187 [label=<genres_['world chill'] &le; 0.5<br/>gini = 0.21<br/>samples = 46<br/>value = [59, 8]<br/>class = Non Populaire>, fillcolor="#e99254"] ;
147 -> 187 ;
188 [label=<genres_['cantopop', 'chinese hip hop'] &le; 0.5<br/>gini = 0.213<br/>samples = 45<br/>value = [58, 8]<br/>class = Non Populaire>, fillcolor="#e99254"] ;
187 -> 188 ;
189 [label=<genres_['fast melodic punk', 'french punk', 'swiss punk', 'swiss rock'] &le; 0.5<br/>gini = 0.216<br/>samples = 44<br/>value = [57, 8]<br/>class = Non Populaire>, fillcolor="#e99355"] ;
188 -> 189 ;
190 [label=<genres_['future funk'] &le; 0.5<br/>gini = 0.219<br/>samples = 43<br/>value = [56, 8]<br/>class = Non Populaire>, fillcolor="#e99355"] ;
189 -> 190 ;
191 [label=<genres_['speed metal', 'grindcore'] &le; 0.5<br/>gini = 0.225<br/>samples = 42<br/>value = [54, 8]<br/>class = Non Populaire>, fillcolor="#e99456"] ;
190 -> 191 ;
192 [label=<genres_['grindcore', 'death metal'] &le; 0.5<br/>gini = 0.228<br/>samples = 41<br/>value = [53, 8]<br/>class = Non Populaire>, fillcolor="#e99457"] ;
191 -> 192 ;
193 [label=<num_albums &le; 5.5<br/>gini = 0.231<br/>samples = 40<br/>value = [52, 8]<br/>class = Non Populaire>, fillcolor="#e99457"] ;
192 -> 193 ;
194 [label=<genres_['noise rock', 'garage rock'] &le; 0.5<br/>gini = 0.486<br/>samples = 7<br/>value = [7, 5]<br/>class = Non Populaire>, fillcolor="#f8dbc6"] ;
193 -> 194 ;
195 [label=<genres_[] &le; 0.5<br/>gini = 0.5<br/>samples = 6<br/>value = [5, 5]<br/>class = Non Populaire>, fillcolor="#ffffff"] ;
194 -> 195 ;
196 [label=<gini = 0.0<br/>samples = 3<br/>value = [4, 0]<br/>class = Non Populaire>, fillcolor="#e58139"] ;
195 -> 196 ;
197 [label=<num_albums &le; 4.5<br/>gini = 0.278<br/>samples = 3<br/>value = [1, 5]<br/>class = Populaire>, fillcolor="#61b1ea"] ;
195 -> 197 ;
198 [label=<followers &le; 660.5<br/>gini = 0.444<br/>samples = 2<br/>value = [1, 2]<br/>class = Populaire>, fillcolor="#9ccef2"] ;
197 -> 198 ;
199 [label=<gini = 0.0<br/>samples = 1<br/>value = [0, 2]<br/>class = Populaire>, fillcolor="#399de5"] ;
198 -> 199 ;
200 [label=<gini = 0.0<br/>samples = 1<br/>value = [1, 0]<br/>class = Non Populaire>, fillcolor="#e58139"] ;
198 -> 200 ;
201 [label=<gini = 0.0<br/>samples = 1<br/>value = [0, 3]<br/>class = Populaire>, fillcolor="#399de5"] ;
197 -> 201 ;
202 [label=<gini = 0.0<br/>samples = 1<br/>value = [2, 0]<br/>class = Non Populaire>, fillcolor="#e58139"] ;
194 -> 202 ;
203 [label=<genres_['anime piano'] &le; 0.5<br/>gini = 0.117<br/>samples = 33<br/>value = [45, 3]<br/>class = Non Populaire>, fillcolor="#e78946"] ;
193 -> 203 ;
204 [label=<genres_['classic korean pop'] &le; 0.5<br/>gini = 0.12<br/>samples = 32<br/>value = [44.0, 3.0]<br/>class = Non Populaire>, fillcolor="#e78a46"] ;
203 -> 204 ;
205 [label=<genres_['groove metal'] &le; 0.5<br/>gini = 0.122<br/>samples = 31<br/>value = [43, 3]<br/>class = Non Populaire>, fillcolor="#e78a47"] ;
204 -> 205 ;
206 [label=<genres_['rusyn folk', 'ukrainian folk', 'ukrainian folk pop'] &le; 0.5<br/>gini = 0.13<br/>samples = 30<br/>value = [40, 3]<br/>class = Non Populaire>, fillcolor="#e78a48"] ;
205 -> 206 ;
207 [label=<num_albums &le; 7.5<br/>gini = 0.136<br/>samples = 29<br/>value = [38, 3]<br/>class = Non Populaire>, fillcolor="#e78b49"] ;
206 -> 207 ;
208 [label=<genres_['chillstep', 'melodic bass', 'future bass'] &le; 0.5<br/>gini = 0.32<br/>samples = 6<br/>value = [8, 2]<br/>class = Non Populaire>, fillcolor="#eca06a"] ;
207 -> 208 ;
209 [label=<genres_['nu disco', 'french house'] &le; 0.5<br/>gini = 0.346<br/>samples = 5<br/>value = [7, 2]<br/>class = Non Populaire>, fillcolor="#eca572"] ;
208 -> 209 ;
210 [label=<genres_['chillwave'] &le; 0.5<br/>gini = 0.444<br/>samples = 4<br/>value = [4, 2]<br/>class = Non Populaire>, fillcolor="#f2c09c"] ;
209 -> 210 ;
211 [label=<num_albums &le; 6.5<br/>gini = 0.48<br/>samples = 3<br/>value = [3, 2]<br/>class = Non Populaire>, fillcolor="#f6d5bd"] ;
210 -> 211 ;
212 [label=<gini = 0.0<br/>samples = 1<br/>value = [3, 0]<br/>class = Non Populaire>, fillcolor="#e58139"] ;
211 -> 212 ;
213 [label=<gini = 0.0<br/>samples = 2<br/>value = [0, 2]<br/>class = Populaire>, fillcolor="#399de5"] ;
211 -> 213 ;
214 [label=<gini = 0.0<br/>samples = 1<br/>value = [1, 0]<br/>class = Non Populaire>, fillcolor="#e58139"] ;
210 -> 214 ;
215 [label=<gini = 0.0<br/>samples = 1<br/>value = [3, 0]<br/>class = Non Populaire>, fillcolor="#e58139"] ;
209 -> 215 ;
216 [label=<gini = 0.0<br/>samples = 1<br/>value = [1, 0]<br/>class = Non Populaire>, fillcolor="#e58139"] ;
208 -> 216 ;
217 [label=<genres_['space music', 'krautrock'] &le; 0.5<br/>gini = 0.062<br/>samples = 23<br/>value = [30, 1]<br/>class = Non Populaire>, fillcolor="#e68540"] ;
207 -> 217 ;
218 [label=<genres_['bossa nova', 'lounge', 'cha cha cha'] &le; 0.5<br/>gini = 0.064<br/>samples = 22<br/>value = [29, 1]<br/>class = Non Populaire>, fillcolor="#e68540"] ;
217 -> 218 ;
219 [label=<genres_['cantonese opera', 'classic cantopop', 'vintage cantonese pop'] &le; 0.5<br/>gini = 0.067<br/>samples = 21<br/>value = [28, 1]<br/>class = Non Populaire>, fillcolor="#e68640"] ;
218 -> 219 ;
220 [label=<genres_['city pop', 'j-pop'] &le; 0.5<br/>gini = 0.069<br/>samples = 20<br/>value = [27, 1]<br/>class = Non Populaire>, fillcolor="#e68640"] ;
219 -> 220 ;
221 [label=<genres_['melodic death metal', 'death metal'] &le; 0.5<br/>gini = 0.074<br/>samples = 19<br/>value = [25, 1]<br/>class = Non Populaire>, fillcolor="#e68641"] ;
220 -> 221 ;
222 [label=<genres_['cedm'] &le; 0.5<br/>gini = 0.077<br/>samples = 18<br/>value = [24, 1]<br/>class = Non Populaire>, fillcolor="#e68641"] ;
221 -> 222 ;
223 [label=<num_albums &le; 11.5<br/>gini = 0.083<br/>samples = 17<br/>value = [22, 1]<br/>class = Non Populaire>, fillcolor="#e68742"] ;
222 -> 223 ;
224 [label=<gini = 0.0<br/>samples = 8<br/>value = [11, 0]<br/>class = Non Populaire>, fillcolor="#e58139"] ;
223 -> 224 ;
225 [label=<genres_['dark cabaret', 'gothic country'] &le; 0.5<br/>gini = 0.153<br/>samples = 9<br/>value = [11, 1]<br/>class = Non Populaire>, fillcolor="#e78c4b"] ;
223 -> 225 ;
226 [label=<genres_[] &le; 0.5<br/>gini = 0.165<br/>samples = 8<br/>value = [10, 1]<br/>class = Non Populaire>, fillcolor="#e88e4d"] ;
225 -> 226 ;
227 [label=<gini = 0.0<br/>samples = 1<br/>value = [2, 0]<br/>class = Non Populaire>, fillcolor="#e58139"] ;
226 -> 227 ;
228 [label=<num_albums &le; 13.0<br/>gini = 0.198<br/>samples = 7<br/>value = [8, 1]<br/>class = Non Populaire>, fillcolor="#e89152"] ;
226 -> 228 ;
229 [label=<followers &le; 1371.5<br/>gini = 0.32<br/>samples = 3<br/>value = [4, 1]<br/>class = Non Populaire>, fillcolor="#eca06a"] ;
228 -> 229 ;
230 [label=<gini = 0.0<br/>samples = 1<br/>value = [2, 0]<br/>class = Non Populaire>, fillcolor="#e58139"] ;
229 -> 230 ;
231 [label=<followers &le; 1912.5<br/>gini = 0.444<br/>samples = 2<br/>value = [2, 1]<br/>class = Non Populaire>, fillcolor="#f2c09c"] ;
229 -> 231 ;
232 [label=<gini = 0.0<br/>samples = 1<br/>value = [0, 1]<br/>class = Populaire>, fillcolor="#399de5"] ;
231 -> 232 ;
233 [label=<gini = 0.0<br/>samples = 1<br/>value = [2, 0]<br/>class = Non Populaire>, fillcolor="#e58139"] ;
231 -> 233 ;
234 [label=<gini = 0.0<br/>samples = 4<br/>value = [4, 0]<br/>class = Non Populaire>, fillcolor="#e58139"] ;
228 -> 234 ;
235 [label=<gini = 0.0<br/>samples = 1<br/>value = [1, 0]<br/>class = Non Populaire>, fillcolor="#e58139"] ;
225 -> 235 ;
236 [label=<gini = 0.0<br/>samples = 1<br/>value = [2, 0]<br/>class = Non Populaire>, fillcolor="#e58139"] ;
222 -> 236 ;
237 [label=<gini = 0.0<br/>samples = 1<br/>value = [1, 0]<br/>class = Non Populaire>, fillcolor="#e58139"] ;
221 -> 237 ;
238 [label=<gini = 0.0<br/>samples = 1<br/>value = [2, 0]<br/>class = Non Populaire>, fillcolor="#e58139"] ;
220 -> 238 ;
239 [label=<gini = 0.0<br/>samples = 1<br/>value = [1, 0]<br/>class = Non Populaire>, fillcolor="#e58139"] ;
219 -> 239 ;
240 [label=<gini = 0.0<br/>samples = 1<br/>value = [1, 0]<br/>class = Non Populaire>, fillcolor="#e58139"] ;
218 -> 240 ;
241 [label=<gini = 0.0<br/>samples = 1<br/>value = [1, 0]<br/>class = Non Populaire>, fillcolor="#e58139"] ;
217 -> 241 ;
242 [label=<gini = 0.0<br/>samples = 1<br/>value = [2, 0]<br/>class = Non Populaire>, fillcolor="#e58139"] ;
206 -> 242 ;
243 [label=<gini = 0.0<br/>samples = 1<br/>value = [3, 0]<br/>class = Non Populaire>, fillcolor="#e58139"] ;
205 -> 243 ;
244 [label=<gini = 0.0<br/>samples = 1<br/>value = [1, 0]<br/>class = Non Populaire>, fillcolor="#e58139"] ;
204 -> 244 ;
245 [label=<gini = 0.0<br/>samples = 1<br/>value = [1, 0]<br/>class = Non Populaire>, fillcolor="#e58139"] ;
203 -> 245 ;
246 [label=<gini = 0.0<br/>samples = 1<br/>value = [1, 0]<br/>class = Non Populaire>, fillcolor="#e58139"] ;
192 -> 246 ;
247 [label=<gini = 0.0<br/>samples = 1<br/>value = [1, 0]<br/>class = Non Populaire>, fillcolor="#e58139"] ;
191 -> 247 ;
248 [label=<gini = 0.0<br/>samples = 1<br/>value = [2, 0]<br/>class = Non Populaire>, fillcolor="#e58139"] ;
190 -> 248 ;
249 [label=<gini = 0.0<br/>samples = 1<br/>value = [1, 0]<br/>class = Non Populaire>, fillcolor="#e58139"] ;
189 -> 249 ;
250 [label=<gini = 0.0<br/>samples = 1<br/>value = [1, 0]<br/>class = Non Populaire>, fillcolor="#e58139"] ;
188 -> 250 ;
251 [label=<gini = 0.0<br/>samples = 1<br/>value = [1, 0]<br/>class = Non Populaire>, fillcolor="#e58139"] ;
187 -> 251 ;
252 [label=<gini = 0.0<br/>samples = 1<br/>value = [1, 0]<br/>class = Non Populaire>, fillcolor="#e58139"] ;
146 -> 252 ;
253 [label=<gini = 0.0<br/>samples = 1<br/>value = [2, 0]<br/>class = Non Populaire>, fillcolor="#e58139"] ;
145 -> 253 ;
254 [label=<followers &le; 2066.5<br/>gini = 0.426<br/>samples = 7<br/>value = [9, 4]<br/>class = Non Populaire>, fillcolor="#f1b991"] ;
144 -> 254 ;
255 [label=<num_albums &le; 9.5<br/>gini = 0.444<br/>samples = 3<br/>value = [2, 4]<br/>class = Populaire>, fillcolor="#9ccef2"] ;
254 -> 255 ;
256 [label=<gini = 0.0<br/>samples = 1<br/>value = [2, 0]<br/>class = Non Populaire>, fillcolor="#e58139"] ;
255 -> 256 ;
257 [label=<gini = 0.0<br/>samples = 2<br/>value = [0, 4]<br/>class = Populaire>, fillcolor="#399de5"] ;
255 -> 257 ;
258 [label=<gini = 0.0<br/>samples = 4<br/>value = [7, 0]<br/>class = Non Populaire>, fillcolor="#e58139"] ;
254 -> 258 ;
259 [label=<gini = 0.0<br/>samples = 2<br/>value = [3, 0]<br/>class = Non Populaire>, fillcolor="#e58139"] ;
143 -> 259 ;
260 [label=<gini = 0.0<br/>samples = 1<br/>value = [3, 0]<br/>class = Non Populaire>, fillcolor="#e58139"] ;
142 -> 260 ;
261 [label=<gini = 0.0<br/>samples = 1<br/>value = [2, 0]<br/>class = Non Populaire>, fillcolor="#e58139"] ;
141 -> 261 ;
262 [label=<gini = 0.0<br/>samples = 1<br/>value = [2, 0]<br/>class = Non Populaire>, fillcolor="#e58139"] ;
140 -> 262 ;
263 [label=<gini = 0.0<br/>samples = 1<br/>value = [3, 0]<br/>class = Non Populaire>, fillcolor="#e58139"] ;
139 -> 263 ;
264 [label=<gini = 0.0<br/>samples = 1<br/>value = [3, 0]<br/>class = Non Populaire>, fillcolor="#e58139"] ;
138 -> 264 ;
265 [label=<gini = 0.0<br/>samples = 1<br/>value = [2, 0]<br/>class = Non Populaire>, fillcolor="#e58139"] ;
137 -> 265 ;
266 [label=<gini = 0.0<br/>samples = 1<br/>value = [1, 0]<br/>class = Non Populaire>, fillcolor="#e58139"] ;
134 -> 266 ;
267 [label=<gini = 0.0<br/>samples = 1<br/>value = [2, 0]<br/>class = Non Populaire>, fillcolor="#e58139"] ;
133 -> 267 ;
268 [label=<gini = 0.0<br/>samples = 1<br/>value = [1, 0]<br/>class = Non Populaire>, fillcolor="#e58139"] ;
132 -> 268 ;
269 [label=<gini = 0.0<br/>samples = 3<br/>value = [7, 0]<br/>class = Non Populaire>, fillcolor="#e58139"] ;
131 -> 269 ;
270 [label=<gini = 0.0<br/>samples = 1<br/>value = [2, 0]<br/>class = Non Populaire>, fillcolor="#e58139"] ;
130 -> 270 ;
271 [label=<gini = 0.0<br/>samples = 2<br/>value = [2, 0]<br/>class = Non Populaire>, fillcolor="#e58139"] ;
129 -> 271 ;
272 [label=<gini = 0.0<br/>samples = 1<br/>value = [2, 0]<br/>class = Non Populaire>, fillcolor="#e58139"] ;
128 -> 272 ;
273 [label=<gini = 0.0<br/>samples = 1<br/>value = [1, 0]<br/>class = Non Populaire>, fillcolor="#e58139"] ;
127 -> 273 ;
274 [label=<gini = 0.0<br/>samples = 1<br/>value = [1, 0]<br/>class = Non Populaire>, fillcolor="#e58139"] ;
126 -> 274 ;
275 [label=<gini = 0.0<br/>samples = 1<br/>value = [1, 0]<br/>class = Non Populaire>, fillcolor="#e58139"] ;
125 -> 275 ;
276 [label=<gini = 0.0<br/>samples = 1<br/>value = [3, 0]<br/>class = Non Populaire>, fillcolor="#e58139"] ;
124 -> 276 ;
277 [label=<gini = 0.0<br/>samples = 1<br/>value = [2, 0]<br/>class = Non Populaire>, fillcolor="#e58139"] ;
123 -> 277 ;
278 [label=<gini = 0.0<br/>samples = 1<br/>value = [2, 0]<br/>class = Non Populaire>, fillcolor="#e58139"] ;
122 -> 278 ;
279 [label=<gini = 0.0<br/>samples = 1<br/>value = [1, 0]<br/>class = Non Populaire>, fillcolor="#e58139"] ;
121 -> 279 ;
280 [label=<gini = 0.0<br/>samples = 1<br/>value = [2, 0]<br/>class = Non Populaire>, fillcolor="#e58139"] ;
120 -> 280 ;
281 [label=<gini = 0.0<br/>samples = 1<br/>value = [3, 0]<br/>class = Non Populaire>, fillcolor="#e58139"] ;
119 -> 281 ;
282 [label=<gini = 0.0<br/>samples = 1<br/>value = [0, 1]<br/>class = Populaire>, fillcolor="#399de5"] ;
118 -> 282 ;
283 [label=<gini = 0.0<br/>samples = 2<br/>value = [3, 0]<br/>class = Non Populaire>, fillcolor="#e58139"] ;
117 -> 283 ;
284 [label=<gini = 0.0<br/>samples = 1<br/>value = [3, 0]<br/>class = Non Populaire>, fillcolor="#e58139"] ;
116 -> 284 ;
285 [label=<gini = 0.0<br/>samples = 2<br/>value = [4, 0]<br/>class = Non Populaire>, fillcolor="#e58139"] ;
115 -> 285 ;
286 [label=<gini = 0.0<br/>samples = 1<br/>value = [1, 0]<br/>class = Non Populaire>, fillcolor="#e58139"] ;
114 -> 286 ;
287 [label=<gini = 0.0<br/>samples = 1<br/>value = [1, 0]<br/>class = Non Populaire>, fillcolor="#e58139"] ;
113 -> 287 ;
288 [label=<gini = 0.0<br/>samples = 1<br/>value = [3, 0]<br/>class = Non Populaire>, fillcolor="#e58139"] ;
112 -> 288 ;
289 [label=<genres_['5th wave emo'] &le; 0.5<br/>gini = 0.026<br/>samples = 99<br/>value = [152, 2]<br/>class = Non Populaire>, fillcolor="#e5833c"] ;
111 -> 289 ;
290 [label=<genres_['sleaze rock', 'swedish hard rock'] &le; 0.5<br/>gini = 0.026<br/>samples = 97<br/>value = [150, 2]<br/>class = Non Populaire>, fillcolor="#e5833c"] ;
289 -> 290 ;
291 [label=<genres_['rockabilly', 'psychobilly'] &le; 0.5<br/>gini = 0.026<br/>samples = 96<br/>value = [147, 2]<br/>class = Non Populaire>, fillcolor="#e5833c"] ;
290 -> 291 ;
292 [label=<genres_['dutch stoner rock', 'latin american heavy psych'] &le; 0.5<br/>gini = 0.027<br/>samples = 94<br/>value = [145, 2]<br/>class = Non Populaire>, fillcolor="#e5833c"] ;
291 -> 292 ;
293 [label=<genres_['grindcore'] &le; 0.5<br/>gini = 0.027<br/>samples = 93<br/>value = [143, 2]<br/>class = Non Populaire>, fillcolor="#e5833c"] ;
292 -> 293 ;
294 [label=<genres_['doom metal', 'black metal'] &le; 0.5<br/>gini = 0.028<br/>samples = 92<br/>value = [140, 2]<br/>class = Non Populaire>, fillcolor="#e5833c"] ;
293 -> 294 ;
295 [label=<genres_['midwest emo'] &le; 0.5<br/>gini = 0.028<br/>samples = 91<br/>value = [139, 2]<br/>class = Non Populaire>, fillcolor="#e5833c"] ;
294 -> 295 ;
296 [label=<genres_['melodic hardcore'] &le; 0.5<br/>gini = 0.029<br/>samples = 89<br/>value = [135, 2]<br/>class = Non Populaire>, fillcolor="#e5833c"] ;
295 -> 296 ;
297 [label=<genres_['psychedelic rock'] &le; 0.5<br/>gini = 0.029<br/>samples = 88<br/>value = [132, 2]<br/>class = Non Populaire>, fillcolor="#e5833c"] ;
296 -> 297 ;
298 [label=<genres_['chinese rock', 'nu metal', 'chinese indie'] &le; 0.5<br/>gini = 0.03<br/>samples = 87<br/>value = [131, 2]<br/>class = Non Populaire>, fillcolor="#e5833c"] ;
297 -> 298 ;
299 [label=<genres_['power metal', 'melodic metal', 'heavy metal', 'arena rock'] &le; 0.5<br/>gini = 0.03<br/>samples = 86<br/>value = [128, 2]<br/>class = Non Populaire>, fillcolor="#e5833c"] ;
298 -> 299 ;
300 [label=<genres_['melodic death metal', 'death metal', 'thrash metal'] &le; 0.5<br/>gini = 0.031<br/>samples = 85<br/>value = [127, 2]<br/>class = Non Populaire>, fillcolor="#e5833c"] ;
299 -> 300 ;
301 [label=<genres_['punk', 'ska punk'] &le; 0.5<br/>gini = 0.031<br/>samples = 84<br/>value = [126, 2]<br/>class = Non Populaire>, fillcolor="#e5833c"] ;
300 -> 301 ;
302 [label=<genres_['djent', 'metalcore', 'deathcore', 'post-hardcore'] &le; 0.5<br/>gini = 0.031<br/>samples = 83<br/>value = [124, 2]<br/>class = Non Populaire>, fillcolor="#e5833c"] ;
301 -> 302 ;
303 [label=<genres_['cantopop', 'hong kong tv drama'] &le; 0.5<br/>gini = 0.032<br/>samples = 82<br/>value = [122, 2]<br/>class = Non Populaire>, fillcolor="#e5833c"] ;
302 -> 303 ;
304 [label=<genres_['idm', 'glitch', 'ambient', 'drone'] &le; 0.5<br/>gini = 0.032<br/>samples = 81<br/>value = [120, 2]<br/>class = Non Populaire>, fillcolor="#e5833c"] ;
303 -> 304 ;
305 [label=<genres_['argentine heavy metal', 'argentine metal'] &le; 0.5<br/>gini = 0.033<br/>samples = 80<br/>value = [119, 2]<br/>class = Non Populaire>, fillcolor="#e5833c"] ;
304 -> 305 ;
306 [label=<genres_['ambient'] &le; 0.5<br/>gini = 0.033<br/>samples = 79<br/>value = [118, 2]<br/>class = Non Populaire>, fillcolor="#e5833c"] ;
305 -> 306 ;
307 [label=<genres_['chinese metal', 'chinese metalcore'] &le; 0.5<br/>gini = 0.017<br/>samples = 77<br/>value = [115, 1]<br/>class = Non Populaire>, fillcolor="#e5823b"] ;
306 -> 307 ;
308 [label=<genres_['heavy metal', 'speed metal', 'power metal'] &le; 0.5<br/>gini = 0.017<br/>samples = 76<br/>value = [114, 1]<br/>class = Non Populaire>, fillcolor="#e5823b"] ;
307 -> 308 ;
309 [label=<genres_['k-pop reality show'] &le; 0.5<br/>gini = 0.017<br/>samples = 75<br/>value = [113, 1]<br/>class = Non Populaire>, fillcolor="#e5823b"] ;
308 -> 309 ;
310 [label=<genres_['christian hip hop', 'drill'] &le; 0.5<br/>gini = 0.018<br/>samples = 74<br/>value = [112, 1]<br/>class = Non Populaire>, fillcolor="#e5823b"] ;
309 -> 310 ;
311 [label=<genres_['ska', 'ska punk'] &le; 0.5<br/>gini = 0.018<br/>samples = 73<br/>value = [109, 1]<br/>class = Non Populaire>, fillcolor="#e5823b"] ;
310 -> 311 ;
312 [label=<genres_['zim hip hop', 'zim urban groove'] &le; 0.5<br/>gini = 0.018<br/>samples = 72<br/>value = [107, 1]<br/>class = Non Populaire>, fillcolor="#e5823b"] ;
311 -> 312 ;
313 [label=<genres_['electronic rock'] &le; 0.5<br/>gini = 0.019<br/>samples = 71<br/>value = [105, 1]<br/>class = Non Populaire>, fillcolor="#e5823b"] ;
312 -> 313 ;
314 [label=<genres_['indian electronic', 'indian indie'] &le; 0.5<br/>gini = 0.019<br/>samples = 70<br/>value = [103, 1]<br/>class = Non Populaire>, fillcolor="#e5823b"] ;
313 -> 314 ;
315 [label=<genres_['bedroom soul'] &le; 0.5<br/>gini = 0.019<br/>samples = 69<br/>value = [101, 1]<br/>class = Non Populaire>, fillcolor="#e5823b"] ;
314 -> 315 ;
316 [label=<num_albums &le; 9.5<br/>gini = 0.02<br/>samples = 68<br/>value = [100, 1]<br/>class = Non Populaire>, fillcolor="#e5823b"] ;
315 -> 316 ;
317 [label=<gini = 0.0<br/>samples = 43<br/>value = [68, 0]<br/>class = Non Populaire>, fillcolor="#e58139"] ;
316 -> 317 ;
318 [label=<genres_['classic cantopop'] &le; 0.5<br/>gini = 0.059<br/>samples = 25<br/>value = [32, 1]<br/>class = Non Populaire>, fillcolor="#e6853f"] ;
316 -> 318 ;
319 [label=<genres_['japanese classical'] &le; 0.5<br/>gini = 0.061<br/>samples = 24<br/>value = [31, 1]<br/>class = Non Populaire>, fillcolor="#e6853f"] ;
318 -> 319 ;
320 [label=<genres_['classic k-pop'] &le; 0.5<br/>gini = 0.064<br/>samples = 23<br/>value = [29, 1]<br/>class = Non Populaire>, fillcolor="#e68540"] ;
319 -> 320 ;
321 [label=<gini = 0.0<br/>samples = 22<br/>value = [29, 0]<br/>class = Non Populaire>, fillcolor="#e58139"] ;
320 -> 321 ;
322 [label=<gini = 0.0<br/>samples = 1<br/>value = [0, 1]<br/>class = Populaire>, fillcolor="#399de5"] ;
320 -> 322 ;
323 [label=<gini = 0.0<br/>samples = 1<br/>value = [2, 0]<br/>class = Non Populaire>, fillcolor="#e58139"] ;
319 -> 323 ;
324 [label=<gini = 0.0<br/>samples = 1<br/>value = [1, 0]<br/>class = Non Populaire>, fillcolor="#e58139"] ;
318 -> 324 ;
325 [label=<gini = 0.0<br/>samples = 1<br/>value = [1, 0]<br/>class = Non Populaire>, fillcolor="#e58139"] ;
315 -> 325 ;
326 [label=<gini = 0.0<br/>samples = 1<br/>value = [2, 0]<br/>class = Non Populaire>, fillcolor="#e58139"] ;
314 -> 326 ;
327 [label=<gini = 0.0<br/>samples = 1<br/>value = [2, 0]<br/>class = Non Populaire>, fillcolor="#e58139"] ;
313 -> 327 ;
328 [label=<gini = 0.0<br/>samples = 1<br/>value = [2, 0]<br/>class = Non Populaire>, fillcolor="#e58139"] ;
312 -> 328 ;
329 [label=<gini = 0.0<br/>samples = 1<br/>value = [2, 0]<br/>class = Non Populaire>, fillcolor="#e58139"] ;
311 -> 329 ;
330 [label=<gini = 0.0<br/>samples = 1<br/>value = [3, 0]<br/>class = Non Populaire>, fillcolor="#e58139"] ;
310 -> 330 ;
331 [label=<gini = 0.0<br/>samples = 1<br/>value = [1, 0]<br/>class = Non Populaire>, fillcolor="#e58139"] ;
309 -> 331 ;
332 [label=<gini = 0.0<br/>samples = 1<br/>value = [1, 0]<br/>class = Non Populaire>, fillcolor="#e58139"] ;
308 -> 332 ;
333 [label=<gini = 0.0<br/>samples = 1<br/>value = [1, 0]<br/>class = Non Populaire>, fillcolor="#e58139"] ;
307 -> 333 ;
334 [label=<num_albums &le; 5.0<br/>gini = 0.375<br/>samples = 2<br/>value = [3, 1]<br/>class = Non Populaire>, fillcolor="#eeab7b"] ;
306 -> 334 ;
335 [label=<gini = 0.0<br/>samples = 1<br/>value = [0, 1]<br/>class = Populaire>, fillcolor="#399de5"] ;
334 -> 335 ;
336 [label=<gini = 0.0<br/>samples = 1<br/>value = [3, 0]<br/>class = Non Populaire>, fillcolor="#e58139"] ;
334 -> 336 ;
337 [label=<gini = 0.0<br/>samples = 1<br/>value = [1, 0]<br/>class = Non Populaire>, fillcolor="#e58139"] ;
305 -> 337 ;
338 [label=<gini = 0.0<br/>samples = 1<br/>value = [1, 0]<br/>class = Non Populaire>, fillcolor="#e58139"] ;
304 -> 338 ;
339 [label=<gini = 0.0<br/>samples = 1<br/>value = [2, 0]<br/>class = Non Populaire>, fillcolor="#e58139"] ;
303 -> 339 ;
340 [label=<gini = 0.0<br/>samples = 1<br/>value = [2, 0]<br/>class = Non Populaire>, fillcolor="#e58139"] ;
302 -> 340 ;
341 [label=<gini = 0.0<br/>samples = 1<br/>value = [2, 0]<br/>class = Non Populaire>, fillcolor="#e58139"] ;
301 -> 341 ;
342 [label=<gini = 0.0<br/>samples = 1<br/>value = [1, 0]<br/>class = Non Populaire>, fillcolor="#e58139"] ;
300 -> 342 ;
343 [label=<gini = 0.0<br/>samples = 1<br/>value = [1, 0]<br/>class = Non Populaire>, fillcolor="#e58139"] ;
299 -> 343 ;
344 [label=<gini = 0.0<br/>samples = 1<br/>value = [3, 0]<br/>class = Non Populaire>, fillcolor="#e58139"] ;
298 -> 344 ;
345 [label=<gini = 0.0<br/>samples = 1<br/>value = [1, 0]<br/>class = Non Populaire>, fillcolor="#e58139"] ;
297 -> 345 ;
346 [label=<gini = 0.0<br/>samples = 1<br/>value = [3, 0]<br/>class = Non Populaire>, fillcolor="#e58139"] ;
296 -> 346 ;
347 [label=<gini = 0.0<br/>samples = 2<br/>value = [4, 0]<br/>class = Non Populaire>, fillcolor="#e58139"] ;
295 -> 347 ;
348 [label=<gini = 0.0<br/>samples = 1<br/>value = [1, 0]<br/>class = Non Populaire>, fillcolor="#e58139"] ;
294 -> 348 ;
349 [label=<gini = 0.0<br/>samples = 1<br/>value = [3, 0]<br/>class = Non Populaire>, fillcolor="#e58139"] ;
293 -> 349 ;
350 [label=<gini = 0.0<br/>samples = 1<br/>value = [2, 0]<br/>class = Non Populaire>, fillcolor="#e58139"] ;
292 -> 350 ;
351 [label=<gini = 0.0<br/>samples = 2<br/>value = [2, 0]<br/>class = Non Populaire>, fillcolor="#e58139"] ;
291 -> 351 ;
352 [label=<gini = 0.0<br/>samples = 1<br/>value = [3, 0]<br/>class = Non Populaire>, fillcolor="#e58139"] ;
290 -> 352 ;
353 [label=<gini = 0.0<br/>samples = 2<br/>value = [2, 0]<br/>class = Non Populaire>, fillcolor="#e58139"] ;
289 -> 353 ;
354 [label=<gini = 0.0<br/>samples = 1<br/>value = [3, 0]<br/>class = Non Populaire>, fillcolor="#e58139"] ;
110 -> 354 ;
355 [label=<gini = 0.0<br/>samples = 1<br/>value = [3, 0]<br/>class = Non Populaire>, fillcolor="#e58139"] ;
109 -> 355 ;
356 [label=<gini = 0.0<br/>samples = 1<br/>value = [1, 0]<br/>class = Non Populaire>, fillcolor="#e58139"] ;
108 -> 356 ;
357 [label=<gini = 0.0<br/>samples = 2<br/>value = [4, 0]<br/>class = Non Populaire>, fillcolor="#e58139"] ;
107 -> 357 ;
358 [label=<gini = 0.0<br/>samples = 1<br/>value = [0, 1]<br/>class = Populaire>, fillcolor="#399de5"] ;
106 -> 358 ;
359 [label=<gini = 0.0<br/>samples = 1<br/>value = [2, 0]<br/>class = Non Populaire>, fillcolor="#e58139"] ;
105 -> 359 ;
360 [label=<genres_['hard house', 'chicago house'] &le; 0.5<br/>gini = 0.212<br/>samples = 232<br/>value = [313, 43]<br/>class = Non Populaire>, fillcolor="#e99254"] ;
104 -> 360 ;
361 [label=<genres_['jazz funk', 'free jazz'] &le; 0.5<br/>gini = 0.213<br/>samples = 231<br/>value = [311, 43]<br/>class = Non Populaire>, fillcolor="#e99254"] ;
360 -> 361 ;
362 [label=<followers &le; 1939.5<br/>gini = 0.215<br/>samples = 230<br/>value = [308, 43]<br/>class = Non Populaire>, fillcolor="#e99355"] ;
361 -> 362 ;
363 [label=<genres_['jungle', 'happy hardcore', 'drum and bass'] &le; 0.5<br/>gini = 0.097<br/>samples = 76<br/>value = [112, 6]<br/>class = Non Populaire>, fillcolor="#e68844"] ;
362 -> 363 ;
364 [label=<genres_['classical'] &le; 0.5<br/>gini = 0.097<br/>samples = 75<br/>value = [111, 6]<br/>class = Non Populaire>, fillcolor="#e68844"] ;
363 -> 364 ;
365 [label=<genres_['indiana hip hop'] &le; 0.5<br/>gini = 0.1<br/>samples = 74<br/>value = [108, 6]<br/>class = Non Populaire>, fillcolor="#e68844"] ;
364 -> 365 ;
366 [label=<genres_['hard minimal techno'] &le; 0.5<br/>gini = 0.101<br/>samples = 73<br/>value = [107, 6]<br/>class = Non Populaire>, fillcolor="#e68844"] ;
365 -> 366 ;
367 [label=<genres_['indietronica'] &le; 0.5<br/>gini = 0.103<br/>samples = 72<br/>value = [104, 6]<br/>class = Non Populaire>, fillcolor="#e68844"] ;
366 -> 367 ;
368 [label=<genres_[] &le; 0.5<br/>gini = 0.105<br/>samples = 71<br/>value = [102, 6]<br/>class = Non Populaire>, fillcolor="#e78845"] ;
367 -> 368 ;
369 [label=<genres_['disco house', 'funky house', 'nu disco'] &le; 0.5<br/>gini = 0.028<br/>samples = 47<br/>value = [69, 1]<br/>class = Non Populaire>, fillcolor="#e5833c"] ;
368 -> 369 ;
370 [label=<genres_['riddim', 'dubstep'] &le; 0.5<br/>gini = 0.029<br/>samples = 46<br/>value = [67, 1]<br/>class = Non Populaire>, fillcolor="#e5833c"] ;
369 -> 370 ;
371 [label=<genres_['acid house', 'lo-fi house'] &le; 0.5<br/>gini = 0.03<br/>samples = 45<br/>value = [65, 1]<br/>class = Non Populaire>, fillcolor="#e5833c"] ;
370 -> 371 ;
372 [label=<genres_['bluegrass', 'christian country', 'southern gospel'] &le; 0.5<br/>gini = 0.03<br/>samples = 44<br/>value = [64, 1]<br/>class = Non Populaire>, fillcolor="#e5833c"] ;
371 -> 372 ;
373 [label=<genres_['liquid funk', 'jungle', 'drum and bass'] &le; 0.5<br/>gini = 0.031<br/>samples = 43<br/>value = [63, 1]<br/>class = Non Populaire>, fillcolor="#e5833c"] ;
372 -> 373 ;
374 [label=<genres_['chinese opera'] &le; 0.5<br/>gini = 0.031<br/>samples = 42<br/>value = [62, 1]<br/>class = Non Populaire>, fillcolor="#e5833c"] ;
373 -> 374 ;
375 [label=<genres_['trance', 'hard house'] &le; 0.5<br/>gini = 0.032<br/>samples = 41<br/>value = [60, 1]<br/>class = Non Populaire>, fillcolor="#e5833c"] ;
374 -> 375 ;
376 [label=<genres_['deep dubstep'] &le; 0.5<br/>gini = 0.033<br/>samples = 40<br/>value = [58, 1]<br/>class = Non Populaire>, fillcolor="#e5833c"] ;
375 -> 376 ;
377 [label=<genres_['cantopop', 'hk-pop'] &le; 0.5<br/>gini = 0.034<br/>samples = 39<br/>value = [57, 1]<br/>class = Non Populaire>, fillcolor="#e5833c"] ;
376 -> 377 ;
378 [label=<genres_['melodic rap'] &le; 0.5<br/>gini = 0.034<br/>samples = 38<br/>value = [56, 1]<br/>class = Non Populaire>, fillcolor="#e5833d"] ;
377 -> 378 ;
379 [label=<genres_['italian metalcore'] &le; 0.5<br/>gini = 0.036<br/>samples = 37<br/>value = [54, 1]<br/>class = Non Populaire>, fillcolor="#e5833d"] ;
378 -> 379 ;
380 [label=<genres_['gaming dubstep', 'melodic dubstep'] &le; 0.5<br/>gini = 0.037<br/>samples = 36<br/>value = [52, 1]<br/>class = Non Populaire>, fillcolor="#e6833d"] ;
379 -> 380 ;
381 [label=<genres_['icelandic classical'] &le; 0.5<br/>gini = 0.04<br/>samples = 35<br/>value = [48.0, 1.0]<br/>class = Non Populaire>, fillcolor="#e6843d"] ;
380 -> 381 ;
382 [label=<genres_['uk funky', 'dubstep', 'uk garage'] &le; 0.5<br/>gini = 0.041<br/>samples = 34<br/>value = [47, 1]<br/>class = Non Populaire>, fillcolor="#e6843d"] ;
381 -> 382 ;
383 [label=<genres_['latin afrobeat'] &le; 0.5<br/>gini = 0.042<br/>samples = 33<br/>value = [46, 1]<br/>class = Non Populaire>, fillcolor="#e6843d"] ;
382 -> 383 ;
384 [label=<genres_['classic russian pop', 'eastern bloc groove'] &le; 0.5<br/>gini = 0.043<br/>samples = 32<br/>value = [45, 1]<br/>class = Non Populaire>, fillcolor="#e6843d"] ;
383 -> 384 ;
385 [label=<followers &le; 643.0<br/>gini = 0.045<br/>samples = 31<br/>value = [42, 1]<br/>class = Non Populaire>, fillcolor="#e6843e"] ;
384 -> 385 ;
386 [label=<genres_['freestyle'] &le; 0.5<br/>gini = 0.133<br/>samples = 11<br/>value = [13, 1]<br/>class = Non Populaire>, fillcolor="#e78b48"] ;
385 -> 386 ;
387 [label=<genres_['trance', 'progressive trance'] &le; 0.5<br/>gini = 0.142<br/>samples = 10<br/>value = [12, 1]<br/>class = Non Populaire>, fillcolor="#e78c49"] ;
386 -> 387 ;
388 [label=<genres_['hardstyle'] &le; 0.5<br/>gini = 0.165<br/>samples = 9<br/>value = [10, 1]<br/>class = Non Populaire>, fillcolor="#e88e4d"] ;
387 -> 388 ;
389 [label=<genres_['study beats'] &le; 0.5<br/>gini = 0.198<br/>samples = 7<br/>value = [8, 1]<br/>class = Non Populaire>, fillcolor="#e89152"] ;
388 -> 389 ;
390 [label=<gini = 0.0<br/>samples = 6<br/>value = [8, 0]<br/>class = Non Populaire>, fillcolor="#e58139"] ;
389 -> 390 ;
391 [label=<gini = 0.0<br/>samples = 1<br/>value = [0, 1]<br/>class = Populaire>, fillcolor="#399de5"] ;
389 -> 391 ;
392 [label=<gini = 0.0<br/>samples = 2<br/>value = [2, 0]<br/>class = Non Populaire>, fillcolor="#e58139"] ;
388 -> 392 ;
393 [label=<gini = 0.0<br/>samples = 1<br/>value = [2, 0]<br/>class = Non Populaire>, fillcolor="#e58139"] ;
387 -> 393 ;
394 [label=<gini = 0.0<br/>samples = 1<br/>value = [1, 0]<br/>class = Non Populaire>, fillcolor="#e58139"] ;
386 -> 394 ;
395 [label=<gini = 0.0<br/>samples = 20<br/>value = [29, 0]<br/>class = Non Populaire>, fillcolor="#e58139"] ;
385 -> 395 ;
396 [label=<gini = 0.0<br/>samples = 1<br/>value = [3, 0]<br/>class = Non Populaire>, fillcolor="#e58139"] ;
384 -> 396 ;
397 [label=<gini = 0.0<br/>samples = 1<br/>value = [1, 0]<br/>class = Non Populaire>, fillcolor="#e58139"] ;
383 -> 397 ;
398 [label=<gini = 0.0<br/>samples = 1<br/>value = [1, 0]<br/>class = Non Populaire>, fillcolor="#e58139"] ;
382 -> 398 ;
399 [label=<gini = 0.0<br/>samples = 1<br/>value = [1, 0]<br/>class = Non Populaire>, fillcolor="#e58139"] ;
381 -> 399 ;
400 [label=<gini = 0.0<br/>samples = 1<br/>value = [4, 0]<br/>class = Non Populaire>, fillcolor="#e58139"] ;
380 -> 400 ;
401 [label=<gini = 0.0<br/>samples = 1<br/>value = [2, 0]<br/>class = Non Populaire>, fillcolor="#e58139"] ;
379 -> 401 ;
402 [label=<gini = 0.0<br/>samples = 1<br/>value = [2, 0]<br/>class = Non Populaire>, fillcolor="#e58139"] ;
378 -> 402 ;
403 [label=<gini = 0.0<br/>samples = 1<br/>value = [1, 0]<br/>class = Non Populaire>, fillcolor="#e58139"] ;
377 -> 403 ;
404 [label=<gini = 0.0<br/>samples = 1<br/>value = [1, 0]<br/>class = Non Populaire>, fillcolor="#e58139"] ;
376 -> 404 ;
405 [label=<gini = 0.0<br/>samples = 1<br/>value = [2, 0]<br/>class = Non Populaire>, fillcolor="#e58139"] ;
375 -> 405 ;
406 [label=<gini = 0.0<br/>samples = 1<br/>value = [2, 0]<br/>class = Non Populaire>, fillcolor="#e58139"] ;
374 -> 406 ;
407 [label=<gini = 0.0<br/>samples = 1<br/>value = [1, 0]<br/>class = Non Populaire>, fillcolor="#e58139"] ;
373 -> 407 ;
408 [label=<gini = 0.0<br/>samples = 1<br/>value = [1, 0]<br/>class = Non Populaire>, fillcolor="#e58139"] ;
372 -> 408 ;
409 [label=<gini = 0.0<br/>samples = 1<br/>value = [1, 0]<br/>class = Non Populaire>, fillcolor="#e58139"] ;
371 -> 409 ;
410 [label=<gini = 0.0<br/>samples = 1<br/>value = [2, 0]<br/>class = Non Populaire>, fillcolor="#e58139"] ;
370 -> 410 ;
411 [label=<gini = 0.0<br/>samples = 1<br/>value = [2, 0]<br/>class = Non Populaire>, fillcolor="#e58139"] ;
369 -> 411 ;
412 [label=<num_albums &le; 19.5<br/>gini = 0.229<br/>samples = 24<br/>value = [33, 5]<br/>class = Non Populaire>, fillcolor="#e99457"] ;
368 -> 412 ;
413 [label=<gini = 0.0<br/>samples = 3<br/>value = [6, 0]<br/>class = Non Populaire>, fillcolor="#e58139"] ;
412 -> 413 ;
414 [label=<followers &le; 955.5<br/>gini = 0.264<br/>samples = 21<br/>value = [27, 5]<br/>class = Non Populaire>, fillcolor="#ea985e"] ;
412 -> 414 ;
415 [label=<gini = 0.0<br/>samples = 10<br/>value = [12, 0]<br/>class = Non Populaire>, fillcolor="#e58139"] ;
414 -> 415 ;
416 [label=<followers &le; 1238.0<br/>gini = 0.375<br/>samples = 11<br/>value = [15, 5]<br/>class = Non Populaire>, fillcolor="#eeab7b"] ;
414 -> 416 ;
417 [label=<followers &le; 1170.5<br/>gini = 0.444<br/>samples = 3<br/>value = [2, 4]<br/>class = Populaire>, fillcolor="#9ccef2"] ;
416 -> 417 ;
418 [label=<followers &le; 1059.0<br/>gini = 0.444<br/>samples = 2<br/>value = [2, 1]<br/>class = Non Populaire>, fillcolor="#f2c09c"] ;
417 -> 418 ;
419 [label=<gini = 0.0<br/>samples = 1<br/>value = [0, 1]<br/>class = Populaire>, fillcolor="#399de5"] ;
418 -> 419 ;
420 [label=<gini = 0.0<br/>samples = 1<br/>value = [2, 0]<br/>class = Non Populaire>, fillcolor="#e58139"] ;
418 -> 420 ;
421 [label=<gini = 0.0<br/>samples = 1<br/>value = [0, 3]<br/>class = Populaire>, fillcolor="#399de5"] ;
417 -> 421 ;
422 [label=<followers &le; 1622.0<br/>gini = 0.133<br/>samples = 8<br/>value = [13, 1]<br/>class = Non Populaire>, fillcolor="#e78b48"] ;
416 -> 422 ;
423 [label=<gini = 0.0<br/>samples = 5<br/>value = [10, 0]<br/>class = Non Populaire>, fillcolor="#e58139"] ;
422 -> 423 ;
424 [label=<followers &le; 1690.5<br/>gini = 0.375<br/>samples = 3<br/>value = [3, 1]<br/>class = Non Populaire>, fillcolor="#eeab7b"] ;
422 -> 424 ;
425 [label=<gini = 0.0<br/>samples = 1<br/>value = [0, 1]<br/>class = Populaire>, fillcolor="#399de5"] ;
424 -> 425 ;
426 [label=<gini = 0.0<br/>samples = 2<br/>value = [3, 0]<br/>class = Non Populaire>, fillcolor="#e58139"] ;
424 -> 426 ;
427 [label=<gini = 0.0<br/>samples = 1<br/>value = [2, 0]<br/>class = Non Populaire>, fillcolor="#e58139"] ;
367 -> 427 ;
428 [label=<gini = 0.0<br/>samples = 1<br/>value = [3, 0]<br/>class = Non Populaire>, fillcolor="#e58139"] ;
366 -> 428 ;
429 [label=<gini = 0.0<br/>samples = 1<br/>value = [1, 0]<br/>class = Non Populaire>, fillcolor="#e58139"] ;
365 -> 429 ;
430 [label=<gini = 0.0<br/>samples = 1<br/>value = [3, 0]<br/>class = Non Populaire>, fillcolor="#e58139"] ;
364 -> 430 ;
431 [label=<gini = 0.0<br/>samples = 1<br/>value = [1, 0]<br/>class = Non Populaire>, fillcolor="#e58139"] ;
363 -> 431 ;
432 [label=<genres_['riddim', 'deathstep', 'dubstep', 'bass music'] &le; 0.5<br/>gini = 0.267<br/>samples = 154<br/>value = [196, 37]<br/>class = Non Populaire>, fillcolor="#ea995e"] ;
362 -> 432 ;
433 [label=<genres_['g-funk', 'west coast hip hop'] &le; 0.5<br/>gini = 0.269<br/>samples = 153<br/>value = [194, 37]<br/>class = Non Populaire>, fillcolor="#ea995f"] ;
432 -> 433 ;
434 [label=<genres_['techno', 'hard techno', 'acid techno', 'minimal techno'] &le; 0.5<br/>gini = 0.271<br/>samples = 152<br/>value = [192, 37]<br/>class = Non Populaire>, fillcolor="#ea995f"] ;
433 -> 434 ;
435 [label=<followers &le; 1957.5<br/>gini = 0.273<br/>samples = 151<br/>value = [190, 37]<br/>class = Non Populaire>, fillcolor="#ea9a60"] ;
434 -> 435 ;
436 [label=<gini = 0.0<br/>samples = 1<br/>value = [0, 3]<br/>class = Populaire>, fillcolor="#399de5"] ;
435 -> 436 ;
437 [label=<genres_['bluegrass', 'country blues'] &le; 0.5<br/>gini = 0.257<br/>samples = 150<br/>value = [190, 34]<br/>class = Non Populaire>, fillcolor="#ea985c"] ;
435 -> 437 ;
438 [label=<genres_['sega mauricien'] &le; 0.5<br/>gini = 0.258<br/>samples = 149<br/>value = [189, 34]<br/>class = Non Populaire>, fillcolor="#ea985d"] ;
437 -> 438 ;
439 [label=<genres_['chinese singer-songwriter'] &le; 0.5<br/>gini = 0.261<br/>samples = 148<br/>value = [186, 34]<br/>class = Non Populaire>, fillcolor="#ea985d"] ;
438 -> 439 ;
440 [label=<genres_['czech alternative rap', 'czsk emo rap'] &le; 0.5<br/>gini = 0.253<br/>samples = 145<br/>value = [183, 32]<br/>class = Non Populaire>, fillcolor="#ea975c"] ;
439 -> 440 ;
441 [label=<genres_['krautrock', 'jazz fusion'] &le; 0.5<br/>gini = 0.255<br/>samples = 144<br/>value = [181, 32]<br/>class = Non Populaire>, fillcolor="#ea975c"] ;
440 -> 441 ;
442 [label=<genres_['dronescape', 'ukrainian ambient'] &le; 0.5<br/>gini = 0.257<br/>samples = 143<br/>value = [179, 32]<br/>class = Non Populaire>, fillcolor="#ea985c"] ;
441 -> 442 ;
443 [label=<genres_['vocal jazz', 'jazz'] &le; 0.5<br/>gini = 0.258<br/>samples = 142<br/>value = [178, 32]<br/>class = Non Populaire>, fillcolor="#ea985d"] ;
442 -> 443 ;
444 [label=<genres_['liquid funk', 'drum and bass', 'jungle'] &le; 0.5<br/>gini = 0.259<br/>samples = 141<br/>value = [177, 32]<br/>class = Non Populaire>, fillcolor="#ea985d"] ;
443 -> 444 ;
445 [label=<genres_['trip hop'] &le; 0.5<br/>gini = 0.265<br/>samples = 140<br/>value = [172, 32]<br/>class = Non Populaire>, fillcolor="#ea985e"] ;
444 -> 445 ;
446 [label=<genres_['ebm', 'synthpop', 'industrial', 'synthwave'] &le; 0.5<br/>gini = 0.262<br/>samples = 137<br/>value = [169, 31]<br/>class = Non Populaire>, fillcolor="#ea985d"] ;
445 -> 446 ;
447 [label=<genres_['schlager', 'schlagerparty'] &le; 0.5<br/>gini = 0.264<br/>samples = 136<br/>value = [167, 31]<br/>class = Non Populaire>, fillcolor="#ea985e"] ;
446 -> 447 ;
448 [label=<genres_['psytrance', 'progressive trance', 'trance'] &le; 0.5<br/>gini = 0.265<br/>samples = 135<br/>value = [166, 31]<br/>class = Non Populaire>, fillcolor="#ea995e"] ;
447 -> 448 ;
449 [label=<genres_['dark techno'] &le; 0.5<br/>gini = 0.267<br/>samples = 134<br/>value = [164.0, 31.0]<br/>class = Non Populaire>, fillcolor="#ea995e"] ;
448 -> 449 ;
450 [label=<genres_['german indie', 'hamburg indie'] &le; 0.5<br/>gini = 0.269<br/>samples = 133<br/>value = [163.0, 31.0]<br/>class = Non Populaire>, fillcolor="#ea995f"] ;
449 -> 450 ;
451 [label=<genres_['chicago house', 'acid house'] &le; 0.5<br/>gini = 0.27<br/>samples = 132<br/>value = [162.0, 31.0]<br/>class = Non Populaire>, fillcolor="#ea995f"] ;
450 -> 451 ;
452 [label=<genres_['azonto', 'afrobeats'] &le; 0.5<br/>gini = 0.272<br/>samples = 131<br/>value = [160, 31]<br/>class = Non Populaire>, fillcolor="#ea995f"] ;
451 -> 452 ;
453 [label=<genres_['japanese chillhop'] &le; 0.5<br/>gini = 0.273<br/>samples = 130<br/>value = [159, 31]<br/>class = Non Populaire>, fillcolor="#ea9a60"] ;
452 -> 453 ;
454 [label=<num_albums &le; 18.5<br/>gini = 0.262<br/>samples = 128<br/>value = [158, 29]<br/>class = Non Populaire>, fillcolor="#ea985d"] ;
453 -> 454 ;
455 [label=<followers &le; 4471.5<br/>gini = 0.444<br/>samples = 3<br/>value = [2, 1]<br/>class = Non Populaire>, fillcolor="#f2c09c"] ;
454 -> 455 ;
456 [label=<gini = 0.0<br/>samples = 2<br/>value = [2, 0]<br/>class = Non Populaire>, fillcolor="#e58139"] ;
455 -> 456 ;
457 [label=<gini = 0.0<br/>samples = 1<br/>value = [0, 1]<br/>class = Populaire>, fillcolor="#399de5"] ;
455 -> 457 ;
458 [label=<genres_['classic cantopop', 'malaysian mandopop'] &le; 0.5<br/>gini = 0.258<br/>samples = 125<br/>value = [156, 28]<br/>class = Non Populaire>, fillcolor="#ea985d"] ;
454 -> 458 ;
459 [label=<genres_['classic cantopop'] &le; 0.5<br/>gini = 0.26<br/>samples = 124<br/>value = [154, 28]<br/>class = Non Populaire>, fillcolor="#ea985d"] ;
458 -> 459 ;
460 [label=<genres_['cornwall indie'] &le; 0.5<br/>gini = 0.266<br/>samples = 118<br/>value = [144, 27]<br/>class = Non Populaire>, fillcolor="#ea995e"] ;
459 -> 460 ;
461 [label=<genres_['soul blues', 'blues'] &le; 0.5<br/>gini = 0.268<br/>samples = 117<br/>value = [142.0, 27.0]<br/>class = Non Populaire>, fillcolor="#ea995f"] ;
460 -> 461 ;
462 [label=<genres_['dancehall', 'soca'] &le; 0.5<br/>gini = 0.27<br/>samples = 116<br/>value = [141.0, 27.0]<br/>class = Non Populaire>, fillcolor="#ea995f"] ;
461 -> 462 ;
463 [label=<genres_['emoplugg', 'glitchcore'] &le; 0.5<br/>gini = 0.271<br/>samples = 115<br/>value = [140, 27]<br/>class = Non Populaire>, fillcolor="#ea995f"] ;
462 -> 463 ;
464 [label=<genres_['electrofox', 'new rave'] &le; 0.5<br/>gini = 0.276<br/>samples = 112<br/>value = [136.0, 27.0]<br/>class = Non Populaire>, fillcolor="#ea9a60"] ;
463 -> 464 ;
465 [label=<genres_['nu jazz', 'indie jazz'] &le; 0.5<br/>gini = 0.279<br/>samples = 111<br/>value = [134.0, 27.0]<br/>class = Non Populaire>, fillcolor="#ea9a61"] ;
464 -> 465 ;
466 [label=<genres_['j-dance', 'idm'] &le; 0.5<br/>gini = 0.282<br/>samples = 110<br/>value = [132, 27]<br/>class = Non Populaire>, fillcolor="#ea9b61"] ;
465 -> 466 ;
467 [label=<genres_['emo rap', 'dark trap'] &le; 0.5<br/>gini = 0.283<br/>samples = 109<br/>value = [131, 27]<br/>class = Non Populaire>, fillcolor="#ea9b62"] ;
466 -> 467 ;
468 [label=<genres_['classical piano', 'classical', 'chamber music'] &le; 0.5<br/>gini = 0.286<br/>samples = 108<br/>value = [129, 27]<br/>class = Non Populaire>, fillcolor="#ea9b62"] ;
467 -> 468 ;
469 [label=<genres_['techno'] &le; 0.5<br/>gini = 0.288<br/>samples = 107<br/>value = [128, 27]<br/>class = Non Populaire>, fillcolor="#ea9c63"] ;
468 -> 469 ;
470 [label=<genres_['classic cantopop', 'classic mandopop'] &le; 0.5<br/>gini = 0.289<br/>samples = 106<br/>value = [127, 27]<br/>class = Non Populaire>, fillcolor="#eb9c63"] ;
469 -> 470 ;
471 [label=<genres_['irish indie', 'irish singer-songwriter'] &le; 0.5<br/>gini = 0.291<br/>samples = 105<br/>value = [126, 27]<br/>class = Non Populaire>, fillcolor="#eb9c63"] ;
470 -> 471 ;
472 [label=<genres_['japanese classical', 'neoclassical'] &le; 0.5<br/>gini = 0.292<br/>samples = 104<br/>value = [125.0, 27.0]<br/>class = Non Populaire>, fillcolor="#eb9c64"] ;
471 -> 472 ;
473 [label=<genres_['chill house', 'tropical house'] &le; 0.5<br/>gini = 0.294<br/>samples = 103<br/>value = [124, 27]<br/>class = Non Populaire>, fillcolor="#eb9c64"] ;
472 -> 473 ;
474 [label=<genres_['future bass', 'nz electronic'] &le; 0.5<br/>gini = 0.287<br/>samples = 102<br/>value = [124, 26]<br/>class = Non Populaire>, fillcolor="#ea9b63"] ;
473 -> 474 ;
475 [label=<genres_['dub techno'] &le; 0.5<br/>gini = 0.29<br/>samples = 101<br/>value = [122, 26]<br/>class = Non Populaire>, fillcolor="#eb9c63"] ;
474 -> 475 ;
476 [label=<genres_['classic korean pop'] &le; 0.5<br/>gini = 0.291<br/>samples = 100<br/>value = [121, 26]<br/>class = Non Populaire>, fillcolor="#eb9c64"] ;
475 -> 476 ;
477 [label=<genres_['acid techno', 'acid house'] &le; 0.5<br/>gini = 0.294<br/>samples = 98<br/>value = [119, 26]<br/>class = Non Populaire>, fillcolor="#eb9d64"] ;
476 -> 477 ;
478 [label=<genres_['samba'] &le; 0.5<br/>gini = 0.298<br/>samples = 97<br/>value = [117.0, 26.0]<br/>class = Non Populaire>, fillcolor="#eb9d65"] ;
477 -> 478 ;
479 [label=<genres_['spanish punk'] &le; 0.5<br/>gini = 0.29<br/>samples = 96<br/>value = [117, 25]<br/>class = Non Populaire>, fillcolor="#eb9c63"] ;
478 -> 479 ;
480 [label=<genres_['hardstyle'] &le; 0.5<br/>gini = 0.292<br/>samples = 95<br/>value = [116, 25]<br/>class = Non Populaire>, fillcolor="#eb9c64"] ;
479 -> 480 ;
481 [label=<genres_['smooth jazz'] &le; 0.5<br/>gini = 0.298<br/>samples = 93<br/>value = [112, 25]<br/>class = Non Populaire>, fillcolor="#eb9d65"] ;
480 -> 481 ;
482 [label=<genres_['drift', 'drone ambient'] &le; 0.5<br/>gini = 0.302<br/>samples = 92<br/>value = [110, 25]<br/>class = Non Populaire>, fillcolor="#eb9e66"] ;
481 -> 482 ;
483 [label=<genres_['nu disco', 'deep house', 'house'] &le; 0.5<br/>gini = 0.304<br/>samples = 91<br/>value = [109, 25]<br/>class = Non Populaire>, fillcolor="#eb9e66"] ;
482 -> 483 ;
484 [label=<genres_['hardstyle', 'frenchcore'] &le; 0.5<br/>gini = 0.305<br/>samples = 90<br/>value = [108, 25]<br/>class = Non Populaire>, fillcolor="#eb9e67"] ;
483 -> 484 ;
485 [label=<genres_['trance', 'progressive trance'] &le; 0.5<br/>gini = 0.307<br/>samples = 89<br/>value = [107, 25]<br/>class = Non Populaire>, fillcolor="#eb9e67"] ;
484 -> 485 ;
486 [label=<genres_['classical'] &le; 0.5<br/>gini = 0.309<br/>samples = 88<br/>value = [106, 25]<br/>class = Non Populaire>, fillcolor="#eb9f68"] ;
485 -> 486 ;
487 [label=<genres_['liquid funk', 'drum and bass'] &le; 0.5<br/>gini = 0.301<br/>samples = 87<br/>value = [106, 24]<br/>class = Non Populaire>, fillcolor="#eb9e66"] ;
486 -> 487 ;
488 [label=<genres_['jazz fusion', 'jazz'] &le; 0.5<br/>gini = 0.303<br/>samples = 86<br/>value = [105, 24]<br/>class = Non Populaire>, fillcolor="#eb9e66"] ;
487 -> 488 ;
489 [label=<genres_['japanese jazz fusion', 'japanese jazztronica'] &le; 0.5<br/>gini = 0.307<br/>samples = 85<br/>value = [103, 24]<br/>class = Non Populaire>, fillcolor="#eb9e67"] ;
488 -> 489 ;
490 [label=<genres_['breakbeat', 'uk garage', 'big beat', 'miami bass'] &le; 0.5<br/>gini = 0.308<br/>samples = 84<br/>value = [102, 24]<br/>class = Non Populaire>, fillcolor="#eb9f68"] ;
489 -> 490 ;
491 [label=<genres_['krautrock', 'free jazz', 'avant-garde'] &le; 0.5<br/>gini = 0.31<br/>samples = 83<br/>value = [101, 24]<br/>class = Non Populaire>, fillcolor="#eb9f68"] ;
490 -> 491 ;
492 [label=<genres_['drumfunk'] &le; 0.5<br/>gini = 0.312<br/>samples = 82<br/>value = [100, 24]<br/>class = Non Populaire>, fillcolor="#eb9f69"] ;
491 -> 492 ;
493 [label=<genres_['german hard rock'] &le; 0.5<br/>gini = 0.314<br/>samples = 81<br/>value = [99, 24]<br/>class = Non Populaire>, fillcolor="#eba069"] ;
492 -> 493 ;
494 [label=<genres_['future funk'] &le; 0.5<br/>gini = 0.316<br/>samples = 80<br/>value = [98, 24]<br/>class = Non Populaire>, fillcolor="#eba069"] ;
493 -> 494 ;
495 [label=<genres_['electroclash'] &le; 0.5<br/>gini = 0.318<br/>samples = 79<br/>value = [97, 24]<br/>class = Non Populaire>, fillcolor="#eba06a"] ;
494 -> 495 ;
496 [label=<genres_['roots reggae', 'dub', 'reggae', 'rocksteady'] &le; 0.5<br/>gini = 0.32<br/>samples = 78<br/>value = [96, 24]<br/>class = Non Populaire>, fillcolor="#eca06a"] ;
495 -> 496 ;
497 [label=<genres_['lo-fi beats', 'lo-fi', 'chill beats'] &le; 0.5<br/>gini = 0.322<br/>samples = 77<br/>value = [95, 24]<br/>class = Non Populaire>, fillcolor="#eca16b"] ;
496 -> 497 ;
498 [label=<genres_['medieval'] &le; 0.5<br/>gini = 0.326<br/>samples = 76<br/>value = [93, 24]<br/>class = Non Populaire>, fillcolor="#eca26c"] ;
497 -> 498 ;
499 [label=<genres_['indian indie'] &le; 0.5<br/>gini = 0.328<br/>samples = 75<br/>value = [92, 24]<br/>class = Non Populaire>, fillcolor="#eca26d"] ;
498 -> 499 ;
500 [label=<genres_['ambient', 'ambient synth', 'modular synth'] &le; 0.5<br/>gini = 0.332<br/>samples = 74<br/>value = [90, 24]<br/>class = Non Populaire>, fillcolor="#eca36e"] ;
499 -> 500 ;
501 [label=<genres_['japanese chillhop', 'lo-fi chill'] &le; 0.5<br/>gini = 0.335<br/>samples = 73<br/>value = [89, 24]<br/>class = Non Populaire>, fillcolor="#eca36e"] ;
500 -> 501 ;
502 [label=<genres_['cantopop', 'hk-pop'] &le; 0.5<br/>gini = 0.337<br/>samples = 72<br/>value = [88, 24]<br/>class = Non Populaire>, fillcolor="#eca36f"] ;
501 -> 502 ;
503 [label=<genres_['celtic'] &le; 0.5<br/>gini = 0.339<br/>samples = 71<br/>value = [87, 24]<br/>class = Non Populaire>, fillcolor="#eca470"] ;
502 -> 503 ;
504 [label=<genres_['experimental', 'uk funky', 'grime'] &le; 0.5<br/>gini = 0.341<br/>samples = 70<br/>value = [86, 24]<br/>class = Non Populaire>, fillcolor="#eca470"] ;
503 -> 504 ;
505 [label=<genres_[] &le; 0.5<br/>gini = 0.346<br/>samples = 69<br/>value = [84, 24]<br/>class = Non Populaire>, fillcolor="#eca572"] ;
504 -> 505 ;
506 [label=<genres_['entehno', 'laïko'] &le; 0.5<br/>gini = 0.054<br/>samples = 27<br/>value = [35, 1]<br/>class = Non Populaire>, fillcolor="#e6853f"] ;
505 -> 506 ;
507 [label=<genres_['k-ballad'] &le; 0.5<br/>gini = 0.056<br/>samples = 26<br/>value = [34, 1]<br/>class = Non Populaire>, fillcolor="#e6853f"] ;
506 -> 507 ;
508 [label=<genres_['forró'] &le; 0.5<br/>gini = 0.057<br/>samples = 25<br/>value = [33, 1]<br/>class = Non Populaire>, fillcolor="#e6853f"] ;
507 -> 508 ;
509 [label=<genres_['nu disco', 'disco house', 'funky house'] &le; 0.5<br/>gini = 0.059<br/>samples = 24<br/>value = [32, 1]<br/>class = Non Populaire>, fillcolor="#e6853f"] ;
508 -> 509 ;
510 [label=<genres_['classic russian pop', 'eastern bloc groove', 'via'] &le; 0.5<br/>gini = 0.061<br/>samples = 23<br/>value = [31, 1]<br/>class = Non Populaire>, fillcolor="#e6853f"] ;
509 -> 510 ;
511 [label=<genres_['baiao', 'forro', 'forro tradicional', 'sanfona'] &le; 0.5<br/>gini = 0.062<br/>samples = 22<br/>value = [30, 1]<br/>class = Non Populaire>, fillcolor="#e68540"] ;
510 -> 511 ;
512 [label=<genres_['v-pop', 'vietnam indie'] &le; 0.5<br/>gini = 0.064<br/>samples = 21<br/>value = [29, 1]<br/>class = Non Populaire>, fillcolor="#e68540"] ;
511 -> 512 ;
513 [label=<genres_['opera', 'classical'] &le; 0.5<br/>gini = 0.067<br/>samples = 20<br/>value = [28, 1]<br/>class = Non Populaire>, fillcolor="#e68640"] ;
512 -> 513 ;
514 [label=<genres_['classic cantopop', 'vintage cantonese pop'] &le; 0.5<br/>gini = 0.069<br/>samples = 19<br/>value = [27, 1]<br/>class = Non Populaire>, fillcolor="#e68640"] ;
513 -> 514 ;
515 [label=<genres_['vintage chinese pop', 'vintage taiwan pop'] &le; 0.5<br/>gini = 0.071<br/>samples = 18<br/>value = [26, 1]<br/>class = Non Populaire>, fillcolor="#e68641"] ;
514 -> 515 ;
516 [label=<genres_['belgian edm'] &le; 0.5<br/>gini = 0.074<br/>samples = 17<br/>value = [25, 1]<br/>class = Non Populaire>, fillcolor="#e68641"] ;
515 -> 516 ;
517 [label=<genres_['spanish jazz'] &le; 0.5<br/>gini = 0.091<br/>samples = 16<br/>value = [20, 1]<br/>class = Non Populaire>, fillcolor="#e68743"] ;
516 -> 517 ;
518 [label=<genres_['classical piano'] &le; 0.5<br/>gini = 0.095<br/>samples = 15<br/>value = [19, 1]<br/>class = Non Populaire>, fillcolor="#e68843"] ;
517 -> 518 ;
519 [label=<genres_['boogie-woogie', 'rockabilly'] &le; 0.5<br/>gini = 0.1<br/>samples = 14<br/>value = [18, 1]<br/>class = Non Populaire>, fillcolor="#e68844"] ;
518 -> 519 ;
520 [label=<genres_['melodic techno', 'melodic house', 'techno'] &le; 0.5<br/>gini = 0.111<br/>samples = 13<br/>value = [16, 1]<br/>class = Non Populaire>, fillcolor="#e78945"] ;
519 -> 520 ;
521 [label=<genres_['progressive trance', 'progressive trance house'] &le; 0.5<br/>gini = 0.117<br/>samples = 12<br/>value = [15, 1]<br/>class = Non Populaire>, fillcolor="#e78946"] ;
520 -> 521 ;
522 [label=<followers &le; 3314.5<br/>gini = 0.124<br/>samples = 11<br/>value = [14, 1]<br/>class = Non Populaire>, fillcolor="#e78a47"] ;
521 -> 522 ;
523 [label=<gini = 0.0<br/>samples = 4<br/>value = [8, 0]<br/>class = Non Populaire>, fillcolor="#e58139"] ;
522 -> 523 ;
524 [label=<genres_['garage rock', 'proto-punk', 'psychedelic rock', 'acid rock'] &le; 0.5<br/>gini = 0.245<br/>samples = 7<br/>value = [6, 1]<br/>class = Non Populaire>, fillcolor="#e9965a"] ;
522 -> 524 ;
525 [label=<genres_['art pop'] &le; 0.5<br/>gini = 0.278<br/>samples = 6<br/>value = [5, 1]<br/>class = Non Populaire>, fillcolor="#ea9a61"] ;
524 -> 525 ;
526 [label=<gini = 0.0<br/>samples = 5<br/>value = [5, 0]<br/>class = Non Populaire>, fillcolor="#e58139"] ;
525 -> 526 ;
527 [label=<gini = 0.0<br/>samples = 1<br/>value = [0, 1]<br/>class = Populaire>, fillcolor="#399de5"] ;
525 -> 527 ;
528 [label=<gini = 0.0<br/>samples = 1<br/>value = [1, 0]<br/>class = Non Populaire>, fillcolor="#e58139"] ;
524 -> 528 ;
529 [label=<gini = 0.0<br/>samples = 1<br/>value = [1, 0]<br/>class = Non Populaire>, fillcolor="#e58139"] ;
521 -> 529 ;
530 [label=<gini = 0.0<br/>samples = 1<br/>value = [1, 0]<br/>class = Non Populaire>, fillcolor="#e58139"] ;
520 -> 530 ;
531 [label=<gini = 0.0<br/>samples = 1<br/>value = [2, 0]<br/>class = Non Populaire>, fillcolor="#e58139"] ;
519 -> 531 ;
532 [label=<gini = 0.0<br/>samples = 1<br/>value = [1, 0]<br/>class = Non Populaire>, fillcolor="#e58139"] ;
518 -> 532 ;
533 [label=<gini = 0.0<br/>samples = 1<br/>value = [1, 0]<br/>class = Non Populaire>, fillcolor="#e58139"] ;
517 -> 533 ;
534 [label=<gini = 0.0<br/>samples = 1<br/>value = [5, 0]<br/>class = Non Populaire>, fillcolor="#e58139"] ;
516 -> 534 ;
535 [label=<gini = 0.0<br/>samples = 1<br/>value = [1, 0]<br/>class = Non Populaire>, fillcolor="#e58139"] ;
515 -> 535 ;
536 [label=<gini = 0.0<br/>samples = 1<br/>value = [1, 0]<br/>class = Non Populaire>, fillcolor="#e58139"] ;
514 -> 536 ;
537 [label=<gini = 0.0<br/>samples = 1<br/>value = [1, 0]<br/>class = Non Populaire>, fillcolor="#e58139"] ;
513 -> 537 ;
538 [label=<gini = 0.0<br/>samples = 1<br/>value = [1, 0]<br/>class = Non Populaire>, fillcolor="#e58139"] ;
512 -> 538 ;
539 [label=<gini = 0.0<br/>samples = 1<br/>value = [1, 0]<br/>class = Non Populaire>, fillcolor="#e58139"] ;
511 -> 539 ;
540 [label=<gini = 0.0<br/>samples = 1<br/>value = [1, 0]<br/>class = Non Populaire>, fillcolor="#e58139"] ;
510 -> 540 ;
541 [label=<gini = 0.0<br/>samples = 1<br/>value = [1, 0]<br/>class = Non Populaire>, fillcolor="#e58139"] ;
509 -> 541 ;
542 [label=<gini = 0.0<br/>samples = 1<br/>value = [1, 0]<br/>class = Non Populaire>, fillcolor="#e58139"] ;
508 -> 542 ;
543 [label=<gini = 0.0<br/>samples = 1<br/>value = [1, 0]<br/>class = Non Populaire>, fillcolor="#e58139"] ;
507 -> 543 ;
544 [label=<gini = 0.0<br/>samples = 1<br/>value = [1, 0]<br/>class = Non Populaire>, fillcolor="#e58139"] ;
506 -> 544 ;
545 [label=<followers &le; 4331.0<br/>gini = 0.435<br/>samples = 42<br/>value = [49, 23]<br/>class = Non Populaire>, fillcolor="#f1bc96"] ;
505 -> 545 ;
546 [label=<followers &le; 2153.5<br/>gini = 0.494<br/>samples = 23<br/>value = [20, 16]<br/>class = Non Populaire>, fillcolor="#fae6d7"] ;
545 -> 546 ;
547 [label=<gini = 0.0<br/>samples = 2<br/>value = [3, 0]<br/>class = Non Populaire>, fillcolor="#e58139"] ;
546 -> 547 ;
548 [label=<followers &le; 2234.0<br/>gini = 0.5<br/>samples = 21<br/>value = [17, 16]<br/>class = Non Populaire>, fillcolor="#fdf8f3"] ;
546 -> 548 ;
549 [label=<gini = 0.0<br/>samples = 3<br/>value = [0, 5]<br/>class = Populaire>, fillcolor="#399de5"] ;
548 -> 549 ;
550 [label=<followers &le; 3640.5<br/>gini = 0.477<br/>samples = 18<br/>value = [17, 11]<br/>class = Non Populaire>, fillcolor="#f6d3b9"] ;
548 -> 550 ;
551 [label=<followers &le; 2430.0<br/>gini = 0.434<br/>samples = 13<br/>value = [15.0, 7.0]<br/>class = Non Populaire>, fillcolor="#f1bc95"] ;
550 -> 551 ;
552 [label=<gini = 0.0<br/>samples = 2<br/>value = [3, 0]<br/>class = Non Populaire>, fillcolor="#e58139"] ;
551 -> 552 ;
553 [label=<followers &le; 2616.5<br/>gini = 0.465<br/>samples = 11<br/>value = [12, 7]<br/>class = Non Populaire>, fillcolor="#f4caac"] ;
551 -> 553 ;
554 [label=<gini = 0.0<br/>samples = 1<br/>value = [0, 2]<br/>class = Populaire>, fillcolor="#399de5"] ;
553 -> 554 ;
555 [label=<followers &le; 2788.0<br/>gini = 0.415<br/>samples = 10<br/>value = [12, 5]<br/>class = Non Populaire>, fillcolor="#f0b58b"] ;
553 -> 555 ;
556 [label=<gini = 0.0<br/>samples = 1<br/>value = [4, 0]<br/>class = Non Populaire>, fillcolor="#e58139"] ;
555 -> 556 ;
557 [label=<followers &le; 3068.5<br/>gini = 0.473<br/>samples = 9<br/>value = [8, 5]<br/>class = Non Populaire>, fillcolor="#f5d0b5"] ;
555 -> 557 ;
558 [label=<gini = 0.0<br/>samples = 2<br/>value = [0, 3]<br/>class = Populaire>, fillcolor="#399de5"] ;
557 -> 558 ;
559 [label=<followers &le; 3319.5<br/>gini = 0.32<br/>samples = 7<br/>value = [8, 2]<br/>class = Non Populaire>, fillcolor="#eca06a"] ;
557 -> 559 ;
560 [label=<gini = 0.0<br/>samples = 4<br/>value = [5, 0]<br/>class = Non Populaire>, fillcolor="#e58139"] ;
559 -> 560 ;
561 [label=<followers &le; 3411.5<br/>gini = 0.48<br/>samples = 3<br/>value = [3, 2]<br/>class = Non Populaire>, fillcolor="#f6d5bd"] ;
559 -> 561 ;
562 [label=<gini = 0.0<br/>samples = 1<br/>value = [0, 2]<br/>class = Populaire>, fillcolor="#399de5"] ;
561 -> 562 ;
563 [label=<gini = 0.0<br/>samples = 2<br/>value = [3, 0]<br/>class = Non Populaire>, fillcolor="#e58139"] ;
561 -> 563 ;
564 [label=<followers &le; 3965.0<br/>gini = 0.444<br/>samples = 5<br/>value = [2, 4]<br/>class = Populaire>, fillcolor="#9ccef2"] ;
550 -> 564 ;
565 [label=<gini = 0.0<br/>samples = 2<br/>value = [0, 3]<br/>class = Populaire>, fillcolor="#399de5"] ;
564 -> 565 ;
566 [label=<followers &le; 4259.5<br/>gini = 0.444<br/>samples = 3<br/>value = [2, 1]<br/>class = Non Populaire>, fillcolor="#f2c09c"] ;
564 -> 566 ;
567 [label=<gini = 0.0<br/>samples = 2<br/>value = [2, 0]<br/>class = Non Populaire>, fillcolor="#e58139"] ;
566 -> 567 ;
568 [label=<gini = 0.0<br/>samples = 1<br/>value = [0, 1]<br/>class = Populaire>, fillcolor="#399de5"] ;
566 -> 568 ;
569 [label=<num_albums &le; 19.5<br/>gini = 0.313<br/>samples = 19<br/>value = [29, 7]<br/>class = Non Populaire>, fillcolor="#eb9f69"] ;
545 -> 569 ;
570 [label=<gini = 0.0<br/>samples = 1<br/>value = [3, 0]<br/>class = Non Populaire>, fillcolor="#e58139"] ;
569 -> 570 ;
571 [label=<followers &le; 4902.5<br/>gini = 0.334<br/>samples = 18<br/>value = [26, 7]<br/>class = Non Populaire>, fillcolor="#eca36e"] ;
569 -> 571 ;
572 [label=<gini = 0.0<br/>samples = 6<br/>value = [15, 0]<br/>class = Non Populaire>, fillcolor="#e58139"] ;
571 -> 572 ;
573 [label=<followers &le; 5564.0<br/>gini = 0.475<br/>samples = 12<br/>value = [11, 7]<br/>class = Non Populaire>, fillcolor="#f6d1b7"] ;
571 -> 573 ;
574 [label=<followers &le; 5015.5<br/>gini = 0.245<br/>samples = 4<br/>value = [1, 6]<br/>class = Populaire>, fillcolor="#5aade9"] ;
573 -> 574 ;
575 [label=<followers &le; 4966.5<br/>gini = 0.444<br/>samples = 2<br/>value = [1, 2]<br/>class = Populaire>, fillcolor="#9ccef2"] ;
574 -> 575 ;
576 [label=<gini = 0.0<br/>samples = 1<br/>value = [0, 2]<br/>class = Populaire>, fillcolor="#399de5"] ;
575 -> 576 ;
577 [label=<gini = 0.0<br/>samples = 1<br/>value = [1, 0]<br/>class = Non Populaire>, fillcolor="#e58139"] ;
575 -> 577 ;
578 [label=<gini = 0.0<br/>samples = 2<br/>value = [0, 4]<br/>class = Populaire>, fillcolor="#399de5"] ;
574 -> 578 ;
579 [label=<followers &le; 6664.0<br/>gini = 0.165<br/>samples = 8<br/>value = [10, 1]<br/>class = Non Populaire>, fillcolor="#e88e4d"] ;
573 -> 579 ;
580 [label=<gini = 0.0<br/>samples = 6<br/>value = [8, 0]<br/>class = Non Populaire>, fillcolor="#e58139"] ;
579 -> 580 ;
581 [label=<followers &le; 7087.5<br/>gini = 0.444<br/>samples = 2<br/>value = [2, 1]<br/>class = Non Populaire>, fillcolor="#f2c09c"] ;
579 -> 581 ;
582 [label=<gini = 0.0<br/>samples = 1<br/>value = [0, 1]<br/>class = Populaire>, fillcolor="#399de5"] ;
581 -> 582 ;
583 [label=<gini = 0.0<br/>samples = 1<br/>value = [2, 0]<br/>class = Non Populaire>, fillcolor="#e58139"] ;
581 -> 583 ;
584 [label=<gini = 0.0<br/>samples = 1<br/>value = [2, 0]<br/>class = Non Populaire>, fillcolor="#e58139"] ;
504 -> 584 ;
585 [label=<gini = 0.0<br/>samples = 1<br/>value = [1, 0]<br/>class = Non Populaire>, fillcolor="#e58139"] ;
503 -> 585 ;
586 [label=<gini = 0.0<br/>samples = 1<br/>value = [1, 0]<br/>class = Non Populaire>, fillcolor="#e58139"] ;
502 -> 586 ;
587 [label=<gini = 0.0<br/>samples = 1<br/>value = [1, 0]<br/>class = Non Populaire>, fillcolor="#e58139"] ;
501 -> 587 ;
588 [label=<gini = 0.0<br/>samples = 1<br/>value = [1, 0]<br/>class = Non Populaire>, fillcolor="#e58139"] ;
500 -> 588 ;
589 [label=<gini = 0.0<br/>samples = 1<br/>value = [2, 0]<br/>class = Non Populaire>, fillcolor="#e58139"] ;
499 -> 589 ;
590 [label=<gini = 0.0<br/>samples = 1<br/>value = [1, 0]<br/>class = Non Populaire>, fillcolor="#e58139"] ;
498 -> 590 ;
591 [label=<gini = 0.0<br/>samples = 1<br/>value = [2, 0]<br/>class = Non Populaire>, fillcolor="#e58139"] ;
497 -> 591 ;
592 [label=<gini = 0.0<br/>samples = 1<br/>value = [1, 0]<br/>class = Non Populaire>, fillcolor="#e58139"] ;
496 -> 592 ;
593 [label=<gini = 0.0<br/>samples = 1<br/>value = [1, 0]<br/>class = Non Populaire>, fillcolor="#e58139"] ;
495 -> 593 ;
594 [label=<gini = 0.0<br/>samples = 1<br/>value = [1, 0]<br/>class = Non Populaire>, fillcolor="#e58139"] ;
494 -> 594 ;
595 [label=<gini = 0.0<br/>samples = 1<br/>value = [1, 0]<br/>class = Non Populaire>, fillcolor="#e58139"] ;
493 -> 595 ;
596 [label=<gini = 0.0<br/>samples = 1<br/>value = [1, 0]<br/>class = Non Populaire>, fillcolor="#e58139"] ;
492 -> 596 ;
597 [label=<gini = 0.0<br/>samples = 1<br/>value = [1, 0]<br/>class = Non Populaire>, fillcolor="#e58139"] ;
491 -> 597 ;
598 [label=<gini = 0.0<br/>samples = 1<br/>value = [1, 0]<br/>class = Non Populaire>, fillcolor="#e58139"] ;
490 -> 598 ;
599 [label=<gini = 0.0<br/>samples = 1<br/>value = [1, 0]<br/>class = Non Populaire>, fillcolor="#e58139"] ;
489 -> 599 ;
600 [label=<gini = 0.0<br/>samples = 1<br/>value = [2, 0]<br/>class = Non Populaire>, fillcolor="#e58139"] ;
488 -> 600 ;
601 [label=<gini = 0.0<br/>samples = 1<br/>value = [1, 0]<br/>class = Non Populaire>, fillcolor="#e58139"] ;
487 -> 601 ;
602 [label=<gini = 0.0<br/>samples = 1<br/>value = [0, 1]<br/>class = Populaire>, fillcolor="#399de5"] ;
486 -> 602 ;
603 [label=<gini = 0.0<br/>samples = 1<br/>value = [1, 0]<br/>class = Non Populaire>, fillcolor="#e58139"] ;
485 -> 603 ;
604 [label=<gini = 0.0<br/>samples = 1<br/>value = [1, 0]<br/>class = Non Populaire>, fillcolor="#e58139"] ;
484 -> 604 ;
605 [label=<gini = 0.0<br/>samples = 1<br/>value = [1, 0]<br/>class = Non Populaire>, fillcolor="#e58139"] ;
483 -> 605 ;
606 [label=<gini = 0.0<br/>samples = 1<br/>value = [1, 0]<br/>class = Non Populaire>, fillcolor="#e58139"] ;
482 -> 606 ;
607 [label=<gini = 0.0<br/>samples = 1<br/>value = [2, 0]<br/>class = Non Populaire>, fillcolor="#e58139"] ;
481 -> 607 ;
608 [label=<gini = 0.0<br/>samples = 2<br/>value = [4, 0]<br/>class = Non Populaire>, fillcolor="#e58139"] ;
480 -> 608 ;
609 [label=<gini = 0.0<br/>samples = 1<br/>value = [1, 0]<br/>class = Non Populaire>, fillcolor="#e58139"] ;
479 -> 609 ;
610 [label=<gini = 0.0<br/>samples = 1<br/>value = [0, 1]<br/>class = Populaire>, fillcolor="#399de5"] ;
478 -> 610 ;
611 [label=<gini = 0.0<br/>samples = 1<br/>value = [2, 0]<br/>class = Non Populaire>, fillcolor="#e58139"] ;
477 -> 611 ;
612 [label=<gini = 0.0<br/>samples = 2<br/>value = [2, 0]<br/>class = Non Populaire>, fillcolor="#e58139"] ;
476 -> 612 ;
613 [label=<gini = 0.0<br/>samples = 1<br/>value = [1, 0]<br/>class = Non Populaire>, fillcolor="#e58139"] ;
475 -> 613 ;
614 [label=<gini = 0.0<br/>samples = 1<br/>value = [2, 0]<br/>class = Non Populaire>, fillcolor="#e58139"] ;
474 -> 614 ;
615 [label=<gini = 0.0<br/>samples = 1<br/>value = [0, 1]<br/>class = Populaire>, fillcolor="#399de5"] ;
473 -> 615 ;
616 [label=<gini = 0.0<br/>samples = 1<br/>value = [1, 0]<br/>class = Non Populaire>, fillcolor="#e58139"] ;
472 -> 616 ;
617 [label=<gini = 0.0<br/>samples = 1<br/>value = [1, 0]<br/>class = Non Populaire>, fillcolor="#e58139"] ;
471 -> 617 ;
618 [label=<gini = 0.0<br/>samples = 1<br/>value = [1, 0]<br/>class = Non Populaire>, fillcolor="#e58139"] ;
470 -> 618 ;
619 [label=<gini = 0.0<br/>samples = 1<br/>value = [1, 0]<br/>class = Non Populaire>, fillcolor="#e58139"] ;
469 -> 619 ;
620 [label=<gini = 0.0<br/>samples = 1<br/>value = [1, 0]<br/>class = Non Populaire>, fillcolor="#e58139"] ;
468 -> 620 ;
621 [label=<gini = 0.0<br/>samples = 1<br/>value = [2, 0]<br/>class = Non Populaire>, fillcolor="#e58139"] ;
467 -> 621 ;
622 [label=<gini = 0.0<br/>samples = 1<br/>value = [1, 0]<br/>class = Non Populaire>, fillcolor="#e58139"] ;
466 -> 622 ;
623 [label=<gini = 0.0<br/>samples = 1<br/>value = [2, 0]<br/>class = Non Populaire>, fillcolor="#e58139"] ;
465 -> 623 ;
624 [label=<gini = 0.0<br/>samples = 1<br/>value = [2, 0]<br/>class = Non Populaire>, fillcolor="#e58139"] ;
464 -> 624 ;
625 [label=<gini = 0.0<br/>samples = 3<br/>value = [4, 0]<br/>class = Non Populaire>, fillcolor="#e58139"] ;
463 -> 625 ;
626 [label=<gini = 0.0<br/>samples = 1<br/>value = [1, 0]<br/>class = Non Populaire>, fillcolor="#e58139"] ;
462 -> 626 ;
627 [label=<gini = 0.0<br/>samples = 1<br/>value = [1, 0]<br/>class = Non Populaire>, fillcolor="#e58139"] ;
461 -> 627 ;
628 [label=<gini = 0.0<br/>samples = 1<br/>value = [2, 0]<br/>class = Non Populaire>, fillcolor="#e58139"] ;
460 -> 628 ;
629 [label=<num_albums &le; 19.5<br/>gini = 0.165<br/>samples = 6<br/>value = [10, 1]<br/>class = Non Populaire>, fillcolor="#e88e4d"] ;
459 -> 629 ;
630 [label=<gini = 0.0<br/>samples = 1<br/>value = [2, 0]<br/>class = Non Populaire>, fillcolor="#e58139"] ;
629 -> 630 ;
631 [label=<followers &le; 3581.5<br/>gini = 0.198<br/>samples = 5<br/>value = [8, 1]<br/>class = Non Populaire>, fillcolor="#e89152"] ;
629 -> 631 ;
632 [label=<followers &le; 3206.0<br/>gini = 0.444<br/>samples = 2<br/>value = [2, 1]<br/>class = Non Populaire>, fillcolor="#f2c09c"] ;
631 -> 632 ;
633 [label=<gini = 0.0<br/>samples = 1<br/>value = [2, 0]<br/>class = Non Populaire>, fillcolor="#e58139"] ;
632 -> 633 ;
634 [label=<gini = 0.0<br/>samples = 1<br/>value = [0, 1]<br/>class = Populaire>, fillcolor="#399de5"] ;
632 -> 634 ;
635 [label=<gini = 0.0<br/>samples = 3<br/>value = [6, 0]<br/>class = Non Populaire>, fillcolor="#e58139"] ;
631 -> 635 ;
636 [label=<gini = 0.0<br/>samples = 1<br/>value = [2, 0]<br/>class = Non Populaire>, fillcolor="#e58139"] ;
458 -> 636 ;
637 [label=<num_albums &le; 19.5<br/>gini = 0.444<br/>samples = 2<br/>value = [1, 2]<br/>class = Populaire>, fillcolor="#9ccef2"] ;
453 -> 637 ;
638 [label=<gini = 0.0<br/>samples = 1<br/>value = [0, 2]<br/>class = Populaire>, fillcolor="#399de5"] ;
637 -> 638 ;
639 [label=<gini = 0.0<br/>samples = 1<br/>value = [1, 0]<br/>class = Non Populaire>, fillcolor="#e58139"] ;
637 -> 639 ;
640 [label=<gini = 0.0<br/>samples = 1<br/>value = [1, 0]<br/>class = Non Populaire>, fillcolor="#e58139"] ;
452 -> 640 ;
641 [label=<gini = 0.0<br/>samples = 1<br/>value = [2, 0]<br/>class = Non Populaire>, fillcolor="#e58139"] ;
451 -> 641 ;
642 [label=<gini = 0.0<br/>samples = 1<br/>value = [1, 0]<br/>class = Non Populaire>, fillcolor="#e58139"] ;
450 -> 642 ;
643 [label=<gini = 0.0<br/>samples = 1<br/>value = [1, 0]<br/>class = Non Populaire>, fillcolor="#e58139"] ;
449 -> 643 ;
644 [label=<gini = 0.0<br/>samples = 1<br/>value = [2, 0]<br/>class = Non Populaire>, fillcolor="#e58139"] ;
448 -> 644 ;
645 [label=<gini = 0.0<br/>samples = 1<br/>value = [1, 0]<br/>class = Non Populaire>, fillcolor="#e58139"] ;
447 -> 645 ;
646 [label=<gini = 0.0<br/>samples = 1<br/>value = [2, 0]<br/>class = Non Populaire>, fillcolor="#e58139"] ;
446 -> 646 ;
647 [label=<num_albums &le; 19.0<br/>gini = 0.375<br/>samples = 3<br/>value = [3, 1]<br/>class = Non Populaire>, fillcolor="#eeab7b"] ;
445 -> 647 ;
648 [label=<gini = 0.0<br/>samples = 1<br/>value = [0, 1]<br/>class = Populaire>, fillcolor="#399de5"] ;
647 -> 648 ;
649 [label=<gini = 0.0<br/>samples = 2<br/>value = [3, 0]<br/>class = Non Populaire>, fillcolor="#e58139"] ;
647 -> 649 ;
650 [label=<gini = 0.0<br/>samples = 1<br/>value = [5, 0]<br/>class = Non Populaire>, fillcolor="#e58139"] ;
444 -> 650 ;
651 [label=<gini = 0.0<br/>samples = 1<br/>value = [1, 0]<br/>class = Non Populaire>, fillcolor="#e58139"] ;
443 -> 651 ;
652 [label=<gini = 0.0<br/>samples = 1<br/>value = [1, 0]<br/>class = Non Populaire>, fillcolor="#e58139"] ;
442 -> 652 ;
653 [label=<gini = 0.0<br/>samples = 1<br/>value = [2, 0]<br/>class = Non Populaire>, fillcolor="#e58139"] ;
441 -> 653 ;
654 [label=<gini = 0.0<br/>samples = 1<br/>value = [2, 0]<br/>class = Non Populaire>, fillcolor="#e58139"] ;
440 -> 654 ;
655 [label=<followers &le; 4586.0<br/>gini = 0.48<br/>samples = 3<br/>value = [3, 2]<br/>class = Non Populaire>, fillcolor="#f6d5bd"] ;
439 -> 655 ;
656 [label=<gini = 0.0<br/>samples = 2<br/>value = [3, 0]<br/>class = Non Populaire>, fillcolor="#e58139"] ;
655 -> 656 ;
657 [label=<gini = 0.0<br/>samples = 1<br/>value = [0, 2]<br/>class = Populaire>, fillcolor="#399de5"] ;
655 -> 657 ;
658 [label=<gini = 0.0<br/>samples = 1<br/>value = [3, 0]<br/>class = Non Populaire>, fillcolor="#e58139"] ;
438 -> 658 ;
659 [label=<gini = 0.0<br/>samples = 1<br/>value = [1, 0]<br/>class = Non Populaire>, fillcolor="#e58139"] ;
437 -> 659 ;
660 [label=<gini = 0.0<br/>samples = 1<br/>value = [2, 0]<br/>class = Non Populaire>, fillcolor="#e58139"] ;
434 -> 660 ;
661 [label=<gini = 0.0<br/>samples = 1<br/>value = [2, 0]<br/>class = Non Populaire>, fillcolor="#e58139"] ;
433 -> 661 ;
662 [label=<gini = 0.0<br/>samples = 1<br/>value = [2, 0]<br/>class = Non Populaire>, fillcolor="#e58139"] ;
432 -> 662 ;
663 [label=<gini = 0.0<br/>samples = 1<br/>value = [3, 0]<br/>class = Non Populaire>, fillcolor="#e58139"] ;
361 -> 663 ;
664 [label=<gini = 0.0<br/>samples = 1<br/>value = [2, 0]<br/>class = Non Populaire>, fillcolor="#e58139"] ;
360 -> 664 ;
665 [label=<num_albums &le; 16.0<br/>gini = 0.444<br/>samples = 3<br/>value = [1, 2]<br/>class = Populaire>, fillcolor="#9ccef2"] ;
103 -> 665 ;
666 [label=<gini = 0.0<br/>samples = 1<br/>value = [0, 1]<br/>class = Populaire>, fillcolor="#399de5"] ;
665 -> 666 ;
